{"learner":{"attributes":{"scikit_learn":"{\"_estimator_type\": \"regressor\"}"},"feature_names":["Petrol_tax","Average_income","Paved_Highways","Population_Driver_licence(%)"],"feature_types":["float","int","int","float"],"gradient_booster":{"model":{"gbtree_model_param":{"num_parallel_tree":"1","num_trees":"100"},"iteration_indptr":[0,1,2,3,4,5,6,7,8,9,10,11,12,13,14,15,16,17,18,19,20,21,22,23,24,25,26,27,28,29,30,31,32,33,34,35,36,37,38,39,40,41,42,43,44,45,46,47,48,49,50,51,52,53,54,55,56,57,58,59,60,61,62,63,64,65,66,67,68,69,70,71,72,73,74,75,76,77,78,79,80,81,82,83,84,85,86,87,88,89,90,91,92,93,94,95,96,97,98,99,100],"tree_info":[0,0,0,0,0,0,0,0,0,0,0,0,0,0,0,0,0,0,0,0,0,0,0,0,0,0,0,0,0,0,0,0,0,0,0,0,0,0,0,0,0,0,0,0,0,0,0,0,0,0,0,0,0,0,0,0,0,0,0,0,0,0,0,0,0,0,0,0,0,0,0,0,0,0,0,0,0,0,0,0,0,0,0,0,0,0,0,0,0,0,0,0,0,0,0,0,0,0,0,0],"trees":[{"base_weights":[-1.5650041E-5,-2.4406448E1,6.589737E1,1.1035072E1,-8.7959526E1,-3.4105278E1,2.7976593E1,-1.06808624E2,1.0473674E1,-1.1547373E1,-1.1684235E0,6.2466152E1,5.526301E0,-3.3603165E1,-8.218424E0,1.0531577E1,-5.8184237E0,-2.6842347E-1,2.1952627E1,-8.368435E0,1.0622365E1,-8.889478E0,4.3705225E0],"categories":[],"categories_nodes":[],"categories_segments":[],"categories_sizes":[],"default_left":[0,0,0,0,0,0,0,0,0,0,0,0,0,0,0,0,0,0,0,0,0,0,0],"id":0,"left_children":[1,3,-1,5,7,9,11,13,15,-1,-1,17,19,-1,-1,-1,-1,-1,-1,21,-1,-1,-1],"loss_changes":[2.1444262E5,8.205768E4,0E0,1.9308059E4,2.5238578E4,7.77603E2,1.3592205E4,1.4756484E3,2.8879766E3,0E0,0E0,4.8153184E3,5.278669E3,0E0,0E0,0E0,0E0,0E0,0E0,4.8210723E3,0E0,0E0,0E0],"parents":[2147483647,0,0,1,1,3,3,4,4,5,5,6,6,7,7,8,8,11,11,12,12,19,19],"right_children":[2,4,-1,6,8,10,12,14,16,-1,-1,18,20,-1,-1,-1,-1,-1,-1,22,-1,-1,-1],"split_conditions":[6.72E-1,4.447E3,6.589737E1,5.29E-1,6.02E-1,6.905E3,3.865E3,5.72E-1,7.5E0,-1.1547373E1,-1.1684235E0,3.333E3,8.507E3,-3.3603165E1,-8.218424E0,1.0531577E1,-5.8184237E0,-2.6842347E-1,2.1952627E1,4.258E3,1.0622365E1,-8.889478E0,4.3705225E0],"split_indices":[3,1,0,3,3,2,1,3,0,0,0,1,2,0,0,0,0,0,0,1,0,0,0],"split_type":[0,0,0,0,0,0,0,0,0,0,0,0,0,0,0,0,0,0,0,0,0,0,0],"sum_hessian":[3.8E1,3.5E1,3E0,2.3E1,1.2E1,6E0,1.7E1,1E1,2E0,5E0,1E0,6E0,1.1E1,9E0,1E0,1E0,1E0,1E0,5E0,8E0,3E0,4E0,4E0],"tree_param":{"num_deleted":"0","num_feature":"4","num_nodes":"23","size_leaf_vector":"1"}},{"base_weights":[1.1246119E0,-1.7696651E1,5.1070454E1,3.4493103E0,-8.151779E1,2.3815323E1,-2.1881884E1,-2.8033632E1,-7.9542117E0,5.2408924E1,6.053783E0,-3.2130127E1,9.209198E0,5.7522717E1,4.0259953E0,-2.5789917E1,8.380338E0,-4.0192474E1,-1.6029285E1,-3.4736938E0,7.088681E0,1.952668E1,4.088681E0,-1.986322E0,-1.0908637E1,-1.6142847E1,-5.979479E0,9.399415E-2,-8.108637E0,-2.2815858E-1,-1.3350037E0],"categories":[],"categories_nodes":[],"categories_segments":[],"categories_sizes":[],"default_left":[0,0,0,0,0,0,0,0,0,0,0,0,0,0,0,0,0,0,0,0,0,0,0,0,0,0,0,0,0,0,0],"id":1,"left_children":[1,3,-1,5,7,9,11,-1,-1,13,15,17,19,21,-1,23,-1,25,27,29,-1,-1,-1,-1,-1,-1,-1,-1,-1,-1,-1],"loss_changes":[1.2714444E5,4.886532E4,0E0,1.4966195E4,3.4269688E3,7.808591E3,4.4380703E3,0E0,0E0,4.2433398E2,8.384805E3,6.5384863E2,8.136157E2,7.734531E2,0E0,7.725283E2,0E0,5.8284766E2,9.072709E2,4.562378E0,0E0,0E0,0E0,0E0,0E0,0E0,0E0,0E0,0E0,0E0,0E0],"parents":[2147483647,0,0,1,1,3,3,4,4,5,5,6,6,9,9,10,10,11,11,12,12,13,13,15,15,17,17,18,18,19,19],"right_children":[2,4,-1,6,8,10,12,-1,-1,14,16,18,20,22,-1,24,-1,26,28,30,-1,-1,-1,-1,-1,-1,-1,-1,-1,-1,-1],"split_conditions":[6.72E-1,4.716E3,5.1070454E1,8E0,5.72E-1,5.915E3,5.78E-1,-2.8033632E1,-7.9542117E0,6.08E-1,5.53E-1,5.3E-1,5.86E-1,7.5E0,4.0259953E0,3.656E3,8.380338E0,8.5E0,8.5E0,8.5E0,7.088681E0,1.952668E1,4.088681E0,-1.986322E0,-1.0908637E1,-1.6142847E1,-5.979479E0,9.399415E-2,-8.108637E0,-2.2815858E-1,-1.3350037E0],"split_indices":[3,1,0,0,3,2,3,0,0,3,3,3,3,0,0,1,0,0,0,0,0,0,0,0,0,0,0,0,0,0,0],"split_type":[0,0,0,0,0,0,0,0,0,0,0,0,0,0,0,0,0,0,0,0,0,0,0,0,0,0,0,0,0,0,0],"sum_hessian":[3.8E1,3.5E1,3E0,2.7E1,8E0,1.5E1,1.2E1,6E0,2E0,5E0,1E1,9E0,3E0,4E0,1E0,4E0,6E0,5E0,4E0,2E0,1E0,3E0,1E0,2E0,2E0,2E0,3E0,2E0,2E0,1E0,1E0],"tree_param":{"num_deleted":"0","num_feature":"4","num_nodes":"31","size_leaf_vector":"1"}},{"base_weights":[1.1358987E0,-1.3428555E1,3.9579605E1,2.361498E0,-6.1061104E1,1.8116158E1,-1.7210506E1,-2.0824984E1,-6.3633666E0,4.129314E1,3.8272429E0,-2.5504786E1,7.82782E0,4.8907898E1,5.212726E0,-2.0631933E1,2.0751333E1,-3.1821787E1,-1.2823425E1,-2.9526367E0,6.0253787E0,1.724624E1,3.4753785E0,-1.5890564E0,-8.726911E0,8.617621E0,3.544988E0,-1.2914283E1,-4.634093E0,7.519531E-2,-6.486908E0,-1.9393617E-1,-1.1347504E0],"categories":[],"categories_nodes":[],"categories_segments":[],"categories_sizes":[],"default_left":[0,0,0,0,0,0,0,0,0,0,0,0,0,0,0,0,0,0,0,0,0,0,0,0,0,0,0,0,0,0,0,0,0],"id":2,"left_children":[1,3,-1,5,7,9,11,-1,-1,13,15,17,19,21,-1,23,25,27,29,31,-1,-1,-1,-1,-1,-1,-1,-1,-1,-1,-1,-1,-1],"loss_changes":[7.606564E4,2.7220535E4,0E0,8.945596E3,1.5242812E3,5.1407446E3,2.89942E3,0E0,0E0,2.4293848E2,4.9815825E3,3.9301807E2,5.87837E2,6.1490234E2,0E0,4.944187E2,1.5928442E2,4.3796826E2,5.806532E2,3.2962475E0,0E0,0E0,0E0,0E0,0E0,0E0,0E0,0E0,0E0,0E0,0E0,0E0,0E0],"parents":[2147483647,0,0,1,1,3,3,4,4,5,5,6,6,9,9,10,10,11,11,12,12,13,13,15,15,16,16,17,17,18,18,19,19],"right_children":[2,4,-1,6,8,10,12,-1,-1,14,16,18,20,22,-1,24,26,28,30,32,-1,-1,-1,-1,-1,-1,-1,-1,-1,-1,-1,-1,-1],"split_conditions":[6.72E-1,4.716E3,3.9579605E1,8E0,5.72E-1,5.915E3,5.78E-1,-2.0824984E1,-6.3633666E0,3.802E3,5.53E-1,5.3E-1,5.86E-1,7.5E0,5.212726E0,3.656E3,8.159E3,8.5E0,8.5E0,8.5E0,6.0253787E0,1.724624E1,3.4753785E0,-1.5890564E0,-8.726911E0,8.617621E0,3.544988E0,-1.2914283E1,-4.634093E0,7.519531E-2,-6.486908E0,-1.9393617E-1,-1.1347504E0],"split_indices":[3,1,0,0,3,2,3,0,0,1,3,3,3,0,0,1,2,0,0,0,0,0,0,0,0,0,0,0,0,0,0,0,0],"split_type":[0,0,0,0,0,0,0,0,0,0,0,0,0,0,0,0,0,0,0,0,0,0,0,0,0,0,0,0,0,0,0,0,0],"sum_hessian":[3.8E1,3.5E1,3E0,2.7E1,8E0,1.5E1,1.2E1,6E0,2E0,5E0,1E1,9E0,3E0,3E0,2E0,4E0,6E0,5E0,4E0,2E0,1E0,2E0,1E0,2E0,2E0,2E0,4E0,2E0,3E0,2E0,2E0,1E0,1E0],"tree_param":{"num_deleted":"0","num_feature":"4","num_nodes":"33","size_leaf_vector":"1"}},{"base_weights":[1.3312566E0,-9.918618E0,1.02247314E2,1.9572536E0,-4.5763706E1,6.999463E0,3.623262E1,1.4417629E1,-1.3529151E1,-2.284916E1,-3.2443203E1,3.32276E1,2.8469515E0,-2.0249353E1,6.6536407E0,-2.7980256E0,-1.0323948E1,3.941594E1,4.1701846E0,-1.6505543E1,1.6263454E1,-2.5199972E1,-1.025874E1,-2.5097454E0,5.12157E0,1.3796998E1,2.9540682E0,-1.2712464E0,-6.981525E0,2.4911096E0,7.2325683E0,-1.0331421E1,-3.5914216E0,6.0156252E-2,-5.1895266E0,-1.6484986E-1,-9.6453553E-1],"categories":[],"categories_nodes":[],"categories_segments":[],"categories_sizes":[],"default_left":[0,0,0,0,0,0,0,0,0,0,0,0,0,0,0,0,0,0,0,0,0,0,0,0,0,0,0,0,0,0,0,0,0,0,0,0,0],"id":3,"left_children":[1,3,5,7,9,-1,-1,11,13,-1,15,17,19,21,23,-1,-1,25,-1,27,29,31,33,35,-1,-1,-1,-1,-1,-1,-1,-1,-1,-1,-1,-1,-1],"loss_changes":[4.5290582E4,1.5414472E4,3.03075E3,5.598118E3,1.1735078E3,0E0,0E0,3.3877087E3,1.8979531E3,0E0,4.334375E1,1.6970557E2,3.1245076E3,2.3607764E2,4.2471222E2,0E0,0E0,3.246953E2,0E0,3.1642712E2,2.3692542E2,3.2096875E2,3.7161798E2,2.3814087E0,0E0,0E0,0E0,0E0,0E0,0E0,0E0,0E0,0E0,0E0,0E0,0E0,0E0],"parents":[2147483647,0,0,1,1,2,2,3,3,4,4,7,7,8,8,10,10,11,11,12,12,13,13,14,14,17,17,19,19,20,20,21,21,22,22,23,23],"right_children":[2,4,6,8,10,-1,-1,12,14,-1,16,18,20,22,24,-1,-1,26,-1,28,30,32,34,36,-1,-1,-1,-1,-1,-1,-1,-1,-1,-1,-1,-1,-1],"split_conditions":[6.72E-1,4.716E3,6.58E0,8E0,4.87E-1,6.999463E0,3.623262E1,5.915E3,5.78E-1,-2.284916E1,1.25E3,3.802E3,5.53E-1,5.3E-1,5.86E-1,-2.7980256E0,-1.0323948E1,7.5E0,4.1701846E0,3.656E3,8.577E3,8.5E0,8.5E0,8.5E0,5.12157E0,1.3796998E1,2.9540682E0,-1.2712464E0,-6.981525E0,2.4911096E0,7.2325683E0,-1.0331421E1,-3.5914216E0,6.0156252E-2,-5.1895266E0,-1.6484986E-1,-9.6453553E-1],"split_indices":[3,1,0,0,3,0,0,2,3,0,2,1,3,3,3,0,0,0,0,1,2,0,0,0,0,0,0,0,0,0,0,0,0,0,0,0,0],"split_type":[0,0,0,0,0,0,0,0,0,0,0,0,0,0,0,0,0,0,0,0,0,0,0,0,0,0,0,0,0,0,0,0,0,0,0,0,0],"sum_hessian":[3.8E1,3.5E1,3E0,2.7E1,8E0,1E0,2E0,1.5E1,1.2E1,1E0,7E0,5E0,1E1,9E0,3E0,1E0,6E0,3E0,2E0,4E0,6E0,5E0,4E0,2E0,1E0,2E0,1E0,2E0,2E0,4E0,2E0,2E0,3E0,2E0,2E0,1E0,1E0],"tree_param":{"num_deleted":"0","num_feature":"4","num_nodes":"37","size_leaf_vector":"1"}},{"base_weights":[1.3060647E0,-1.0229419E1,6.645612E1,4.2484016E0,-3.1215475E1,6.8685856E0,8.2512726E1,1.50635E1,-1.1845452E1,-4.671462E1,-1.7414328E1,2.8986097E1,6.0284915E0,2.6746206E1,4.4185333E0,-1.7251404E1,-7.7516174E-1,-5.3056786E1,-2.2505677E0,-5.084107E-1,-5.7502327E0,2.940923E1,2.0146637E0,-1.1363235E1,4.848073E0,-5.8825636E0,-8.198548E-1,9.788208E-1,-9.0556645E-1,-1.8246012E1,-3.3005679E0,9.77298E0,2.510962E0,-1.0169984E0,-5.292444E0,-1.4012146E-1,5.8059084E-1],"categories":[],"categories_nodes":[],"categories_segments":[],"categories_sizes":[],"default_left":[0,0,0,0,0,0,0,0,0,0,0,0,0,0,0,0,0,0,0,0,0,0,0,0,0,0,0,0,0,0,0,0,0,0,0,0,0],"id":4,"left_children":[1,3,5,7,9,-1,11,13,15,17,19,-1,-1,21,23,25,27,29,-1,-1,-1,31,-1,33,-1,-1,-1,35,-1,-1,-1,-1,-1,-1,-1,-1,-1],"loss_changes":[2.9989768E4,1.0462916E4,2.3074824E3,3.8336228E3,2.1811807E3,0E0,1.5806738E3,1.4985273E3,5.252363E2,1.0941367E3,2.1554175E2,0E0,0E0,1.2255371E2,1.666072E3,1.5174658E2,1.869411E1,9.6327637E2,0E0,0E0,0E0,6.0535156E1,0E0,1.404273E2,0E0,0E0,0E0,5.0528345E0,0E0,0E0,0E0,0E0,0E0,0E0,0E0,0E0,0E0],"parents":[2147483647,0,0,1,1,2,2,3,3,4,4,6,6,7,7,8,8,9,9,10,10,13,13,14,14,15,15,16,16,17,17,21,21,23,23,27,27],"right_children":[2,4,6,8,10,-1,12,14,16,18,20,-1,-1,22,24,26,28,30,-1,-1,-1,32,-1,34,-1,-1,-1,36,-1,-1,-1,-1,-1,-1,-1,-1,-1],"split_conditions":[6.63E-1,4.332E3,3.495E3,8E0,5.3E-1,6.8685856E0,5.939E3,5.915E3,4.686E3,1.4186E4,5.4E-1,2.8986097E1,6.0284915E0,6.08E-1,7.834E3,5.78E-1,8.5E0,8.5E0,-2.2505677E0,-5.084107E-1,-5.7502327E0,7.5E0,2.0146637E0,3.656E3,4.848073E0,-5.8825636E0,-8.198548E-1,3.333E3,-9.0556645E-1,-1.8246012E1,-3.3005679E0,9.77298E0,2.510962E0,-1.0169984E0,-5.292444E0,-1.4012146E-1,5.8059084E-1],"split_indices":[3,1,2,0,3,0,2,2,2,2,3,0,0,3,2,3,0,0,0,0,0,0,0,1,0,0,0,1,0,0,0,0,0,0,0,0,0],"split_type":[0,0,0,0,0,0,0,0,0,0,0,0,0,0,0,0,0,0,0,0,0,0,0,0,0,0,0,0,0,0,0,0,0,0,0,0,0],"sum_hessian":[3.8E1,3.3E1,5E0,2E1,1.3E1,2E0,3E0,1.2E1,8E0,5E0,8E0,2E0,1E0,5E0,7E0,5E0,3E0,4E0,1E0,1E0,7E0,4E0,1E0,3E0,4E0,4E0,1E0,2E0,1E0,3E0,1E0,3E0,1E0,2E0,1E0,1E0,1E0],"tree_param":{"num_deleted":"0","num_feature":"4","num_nodes":"37","size_leaf_vector":"1"}},{"base_weights":[1.3628955E0,-7.877823E0,5.3499817E1,3.2438762E0,-2.399767E1,5.4948673E0,6.651256E1,1.1531936E1,-9.088196E0,-1.6684887E1,-1.7287292E1,2.318888E1,5.124216E0,2.110546E1,2.9103012E0,-1.3193044E1,-6.588745E-1,-1.5157838E0,-5.3657393E0,2.626471E1,2.1573915E0,-9.531616E0,1.22817745E1,-4.4707475E0,-6.96872E-1,8.320109E-1,-7.697297E-1,9.083009E0,2.134314E0,-8.1359255E-1,-4.498581E0,1.3244447E0,4.816443E0,-1.1910096E-1,4.9350587E-1],"categories":[],"categories_nodes":[],"categories_segments":[],"categories_sizes":[],"default_left":[0,0,0,0,0,0,0,0,0,0,0,0,0,0,0,0,0,0,0,0,0,0,0,0,0,0,0,0,0,0,0,0,0,0,0],"id":5,"left_children":[1,3,5,7,9,-1,11,13,15,-1,17,-1,-1,19,21,23,25,-1,-1,27,-1,29,31,-1,-1,33,-1,-1,-1,-1,-1,-1,-1,-1,-1],"loss_changes":[1.9210984E4,6.173368E3,1.52875E3,2.2511924E3,2.0089644E3,0E0,8.11959E2,1.01158923E3,3.0271722E2,0E0,4.822998E0,0E0,0E0,2.4184204E2,1.049858E3,7.687439E1,1.3506568E1,0E0,0E0,9.192334E1,0E0,1.0837381E2,7.753259E1,0E0,0E0,3.6506753E0,0E0,0E0,0E0,0E0,0E0,0E0,0E0,0E0,0E0],"parents":[2147483647,0,0,1,1,2,2,3,3,4,4,6,6,7,7,8,8,10,10,13,13,14,14,15,15,16,16,19,19,21,21,22,22,25,25],"right_children":[2,4,6,8,10,-1,12,14,16,-1,18,-1,-1,20,22,24,26,-1,-1,28,-1,30,32,-1,-1,34,-1,-1,-1,-1,-1,-1,-1,-1,-1],"split_conditions":[6.63E-1,4.332E3,3.495E3,8E0,4.87E-1,5.4948673E0,5.939E3,5.915E3,4.686E3,-1.6684887E1,1.25E3,2.318888E1,5.124216E0,3.802E3,7.834E3,5.78E-1,8.5E0,-1.5157838E0,-5.3657393E0,7.5E0,2.1573915E0,3.656E3,8.577E3,-4.4707475E0,-6.96872E-1,3.333E3,-7.697297E-1,9.083009E0,2.134314E0,-8.1359255E-1,-4.498581E0,1.3244447E0,4.816443E0,-1.1910096E-1,4.9350587E-1],"split_indices":[3,1,2,0,3,0,2,2,2,0,2,0,0,1,2,3,0,0,0,0,0,1,2,0,0,1,0,0,0,0,0,0,0,0,0],"split_type":[0,0,0,0,0,0,0,0,0,0,0,0,0,0,0,0,0,0,0,0,0,0,0,0,0,0,0,0,0,0,0,0,0,0,0],"sum_hessian":[3.8E1,3.3E1,5E0,2E1,1.3E1,2E0,3E0,1.2E1,8E0,1E0,1.2E1,2E0,1E0,5E0,7E0,5E0,3E0,1E0,1.1E1,3E0,2E0,3E0,4E0,4E0,1E0,2E0,1E0,2E0,1E0,2E0,1E0,2E0,2E0,1E0,1E0],"tree_param":{"num_deleted":"0","num_feature":"4","num_nodes":"35","size_leaf_vector":"1"}},{"base_weights":[1.4381793E0,-6.667105E0,3.944335E1,-1.2504795E1,-3.0634363E0,4.7469225E0,5.320279E1,3.643648E0,-1.2630448E1,2.1638325E1,6.855567E0,8.4623E0,-4.0397873E0,-1.7460596E1,-8.543651E0,1.700293E1,-6.713867E-2,7.0719403E-1,-5.73998E0,-5.9936647E0,-1.1081177E0,3.7271118E-1,-2.9766598E0,6.3568864E0,1.7259095E0,-2.340088E0,3.8531494E0,-1.0123902E-1,4.1947633E-1,-2.5256655E-1,-1.9653664E0],"categories":[],"categories_nodes":[],"categories_segments":[],"categories_sizes":[],"default_left":[0,0,0,0,0,0,0,0,0,0,0,0,0,0,0,0,0,0,0,0,0,0,0,0,0,0,0,0,0,0,0],"id":6,"left_children":[1,3,5,-1,7,-1,9,11,13,-1,-1,15,17,19,21,23,25,27,29,-1,-1,-1,-1,-1,-1,-1,-1,-1,-1,-1,-1],"loss_changes":[1.2276639E4,4.036394E3,1.4331807E3,0E0,2.0351904E3,0E0,6.4930176E2,7.376383E2,1.07440674E2,0E0,0E0,8.7530273E2,6.8625534E1,9.9548096E1,1.3374164E2,1.6069458E2,7.990833E2,2.6376238E0,1.832579E1,0E0,0E0,0E0,0E0,0E0,0E0,0E0,0E0,0E0,0E0,0E0,0E0],"parents":[2147483647,0,0,1,1,2,2,4,4,6,6,7,7,8,8,11,11,12,12,13,13,14,14,15,15,16,16,17,17,18,18],"right_children":[2,4,6,-1,8,-1,10,12,14,-1,-1,16,18,20,22,24,26,28,30,-1,-1,-1,-1,-1,-1,-1,-1,-1,-1,-1,-1],"split_conditions":[6.29E-1,4.93E-1,6.72E-1,-1.2504795E1,4.332E3,4.7469225E0,4.391E3,8E0,5.3E-1,2.1638325E1,6.855567E0,5.915E3,8.5E0,4.983E3,5.4E-1,3.802E3,8.577E3,3.333E3,3.601E3,-5.9936647E0,-1.1081177E0,3.7271118E-1,-2.9766598E0,6.3568864E0,1.7259095E0,-2.340088E0,3.8531494E0,-1.0123902E-1,4.1947633E-1,-2.5256655E-1,-1.9653664E0],"split_indices":[3,3,3,0,1,0,1,0,3,0,0,2,0,1,3,1,2,1,1,0,0,0,0,0,0,0,0,0,0,0,0],"split_type":[0,0,0,0,0,0,0,0,0,0,0,0,0,0,0,0,0,0,0,0,0,0,0,0,0,0,0,0,0,0,0],"sum_hessian":[3.8E1,3.2E1,6E0,2E0,3E1,3E0,3E0,1.8E1,1.2E1,1E0,2E0,1.1E1,7E0,4E0,8E0,5E0,6E0,2E0,5E0,3E0,1E0,1E0,7E0,3E0,2E0,4E0,2E0,1E0,1E0,1E0,4E0],"tree_param":{"num_deleted":"0","num_feature":"4","num_nodes":"31","size_leaf_vector":"1"}},{"base_weights":[1.4868939E0,-4.5786734E0,3.5610626E1,-1.2306437E1,-2.2312725E0,3.2356386E0,4.5326843E1,2.4290843E0,-9.587905E0,1.8392578E1,5.8690186E0,7.1945095E0,-4.724206E0,-1.3412491E1,-5.520977E0,1.182766E1,-1.8210857E-1,-6.9874625E0,-1.4826965E-1,-5.9882145E0,-1.5444604E0,3.168091E-1,-1.9834234E0,2.9317474E-1,5.442737E0,-2.7812562E0,2.0039933E0,-2.3964753E0,-2.975281E-1,1.8033448E-1,-3.594635E-1],"categories":[],"categories_nodes":[],"categories_segments":[],"categories_sizes":[],"default_left":[0,0,0,0,0,0,0,0,0,0,0,0,0,0,0,0,0,0,0,0,0,0,0,0,0,0,0,0,0,0,0],"id":7,"left_children":[1,3,5,-1,7,-1,9,11,13,-1,-1,15,17,19,21,23,25,27,29,-1,-1,-1,-1,-1,-1,-1,-1,-1,-1,-1,-1],"loss_changes":[8.235262E3,2.8170278E3,9.5836865E2,0E0,1.1546794E3,0E0,4.4757617E2,7.498462E2,1.28156E2,0E0,0E0,4.464546E2,9.217261E1,2.2193665E2,6.4356186E1,5.304154E2,4.3613562E2,2.8080109E1,3.8675046E0,0E0,0E0,0E0,0E0,0E0,0E0,0E0,0E0,0E0,0E0,0E0,0E0],"parents":[2147483647,0,0,1,1,2,2,4,4,6,6,7,7,8,8,11,11,12,12,13,13,14,14,15,15,16,16,17,17,18,18],"right_children":[2,4,6,-1,8,-1,10,12,14,-1,-1,16,18,20,22,24,26,28,30,-1,-1,-1,-1,-1,-1,-1,-1,-1,-1,-1,-1],"split_conditions":[6.63E-1,4.87E-1,3.495E3,-1.2306437E1,4.332E3,3.2356386E0,4.391E3,8E0,8E0,1.8392578E1,5.8690186E0,4.092E3,4.686E3,8.507E3,4.447E3,3.656E3,4.258E3,5.78E-1,8.5E0,-5.9882145E0,-1.5444604E0,3.168091E-1,-1.9834234E0,2.9317474E-1,5.442737E0,-2.7812562E0,2.0039933E0,-2.3964753E0,-2.975281E-1,1.8033448E-1,-3.594635E-1],"split_indices":[3,3,2,0,1,0,1,0,0,0,0,1,2,2,1,1,1,3,0,0,0,0,0,0,0,0,0,0,0,0,0],"split_type":[0,0,0,0,0,0,0,0,0,0,0,0,0,0,0,0,0,0,0,0,0,0,0,0,0,0,0,0,0,0,0],"sum_hessian":[3.8E1,3.3E1,5E0,1E0,3.2E1,2E0,3E0,2E1,1.2E1,1E0,2E0,1.2E1,8E0,5E0,7E0,7E0,5E0,5E0,3E0,2E0,3E0,1E0,6E0,3E0,4E0,2E0,3E0,4E0,1E0,2E0,1E0],"tree_param":{"num_deleted":"0","num_feature":"4","num_nodes":"31","size_leaf_vector":"1"}},{"base_weights":[1.2479287E0,-2.8137555E0,3.7491104E1,-1.0460472E1,-9.016776E-1,1.5633692E1,4.573981E0,1.4544231E0,-9.03532E0,4.526396E0,-2.4383452E0,-5.4615235E0,-1.5373889E0,1.0718099E1,7.3761266E-1,-3.3645527E0,1.3014221E0,4.0881915E0,9.799378E-1,-1.6630573E0,1.5356299E0,-2.3398454E0,-6.7569995E-1],"categories":[],"categories_nodes":[],"categories_segments":[],"categories_sizes":[],"default_left":[0,0,0,0,0,0,0,0,0,0,0,0,0,0,0,0,0,0,0,0,0,0,0],"id":8,"left_children":[1,3,5,-1,7,-1,-1,9,11,13,15,-1,-1,17,19,21,-1,-1,-1,-1,-1,-1,-1],"loss_changes":[5.8466157E3,2.1750244E3,5.064297E2,0E0,6.8387E2,0E0,0E0,3.4587427E2,1.9358636E2,3.6743854E2,9.6188515E1,0E0,0E0,8.555707E1,3.310808E2,4.1624374E1,0E0,0E0,0E0,0E0,0E0,0E0,0E0],"parents":[2147483647,0,0,1,1,2,2,4,4,7,7,8,8,9,9,10,10,13,13,14,14,15,15],"right_children":[2,4,6,-1,8,-1,-1,10,12,14,16,-1,-1,18,20,22,-1,-1,-1,-1,-1,-1,-1],"split_conditions":[6.72E-1,4.87E-1,4.391E3,-1.0460472E1,4.716E3,1.5633692E1,4.573981E0,8E0,4.897E3,5.915E3,5.86E-1,-5.4615235E0,-1.5373889E0,3.802E3,5.53E-1,4.93E-1,1.3014221E0,4.0881915E0,9.799378E-1,-1.6630573E0,1.5356299E0,-2.3398454E0,-6.7569995E-1],"split_indices":[3,3,1,0,1,0,0,0,1,2,3,0,0,1,3,3,0,0,0,0,0,0,0],"split_type":[0,0,0,0,0,0,0,0,0,0,0,0,0,0,0,0,0,0,0,0,0,0,0],"sum_hessian":[3.8E1,3.5E1,3E0,1E0,3.4E1,1E0,2E0,2.7E1,7E0,1.5E1,1.2E1,1E0,6E0,5E0,1E1,1.1E1,1E0,3E0,2E0,4E0,6E0,1E0,1E1],"tree_param":{"num_deleted":"0","num_feature":"4","num_nodes":"23","size_leaf_vector":"1"}},{"base_weights":[1.0267584E0,-2.3649783E0,3.12957E1,-8.8914E0,-7.389491E-1,1.3288642E1,3.659186E0,-5.9656205E0,1.5903442E0,-8.736801E0,1.0681458E0,5.373546E0,-1.2900269E0,-4.642296E0,-5.5636816E0,1.1062135E0,-3.102173E-1,-2.4282837E-1,1.009433E1,-3.137329E0,2.1434877E0,-2.211432E0,-1.0098871E0,-6.5010375E-1,3.7830508E-1,3.4616165E0,4.3085635E-1,3.450238E-1,-1.5511892E0],"categories":[],"categories_nodes":[],"categories_segments":[],"categories_sizes":[],"default_left":[0,0,0,0,0,0,0,0,0,0,0,0,0,0,0,0,0,0,0,0,0,0,0,0,0,0,0,0,0],"id":9,"left_children":[1,3,5,-1,7,-1,-1,9,11,13,15,17,19,-1,21,-1,-1,23,25,27,-1,-1,-1,-1,-1,-1,-1,-1,-1],"loss_changes":[4.0779207E3,1.5745813E3,4.5281567E2,0E0,4.3559317E2,0E0,0E0,2.2374237E2,2.7935767E2,8.493744E1,2.5837595E1,2.941018E2,2.561456E2,0E0,2.9920502E0,0E0,0E0,2.0094688E1,5.8462646E1,1.1927537E2,0E0,0E0,0E0,0E0,0E0,0E0,0E0,0E0,0E0],"parents":[2147483647,0,0,1,1,2,2,4,4,7,7,8,8,9,9,10,10,11,11,12,12,14,14,17,17,18,18,19,19],"right_children":[2,4,6,-1,8,-1,-1,10,12,14,16,18,20,-1,22,-1,-1,24,26,28,-1,-1,-1,-1,-1,-1,-1,-1,-1],"split_conditions":[6.72E-1,4.87E-1,4.391E3,-8.8914E0,3.635E3,1.3288642E1,3.659186E0,5.78E-1,4.206E3,8E0,3.64E3,3.656E3,6.23E-1,-4.642296E0,1.586E3,1.1062135E0,-3.102173E-1,5.17E-1,7.5E0,5.975E3,2.1434877E0,-2.211432E0,-1.0098871E0,-6.5010375E-1,3.7830508E-1,3.4616165E0,4.3085635E-1,3.450238E-1,-1.5511892E0],"split_indices":[3,3,1,0,2,0,0,3,1,0,1,1,3,0,2,0,0,3,0,2,0,0,0,0,0,0,0,0,0],"split_type":[0,0,0,0,0,0,0,0,0,0,0,0,0,0,0,0,0,0,0,0,0,0,0,0,0,0,0,0,0],"sum_hessian":[3.8E1,3.5E1,3E0,1E0,3.4E1,1E0,2E0,1E1,2.4E1,7E0,3E0,1E1,1.4E1,1E0,6E0,1E0,2E0,5E0,5E0,1.2E1,2E0,2E0,4E0,2E0,3E0,4E0,1E0,4E0,8E0],"tree_param":{"num_deleted":"0","num_feature":"4","num_nodes":"29","size_leaf_vector":"1"}},{"base_weights":[8.609596E-1,-2.7061489E0,2.0931082E1,-2.087795E1,-9.179754E-1,1.5244325E0,2.758554E1,-1.8373857E0,-7.557692E0,3.7088623E0,-3.5181696E0,1.1295346E1,3.5039856E0,1.9417027E-1,7.1911926E0,-6.935566E0,-1.3140738E0,-5.200867E-1,1.3120117E0,3.1078355E0,5.697835E-1,-1.1277237E1,-2.075116E0,-2.255479E0,1.6386292E0,-6.84906E-2,5.262497E-1,3.6140442E-1,-1.0500184E-1,-4.346265E0,-2.469452E-1,-9.376122E-1,3.1888735E-1,-1.4604859E0,-2.9544252E-1],"categories":[],"categories_nodes":[],"categories_segments":[],"categories_sizes":[],"default_left":[0,0,0,0,0,0,0,0,0,0,0,0,0,0,0,0,0,0,0,0,0,0,0,0,0,0,0,0,0,0,0,0,0,0,0],"id":10,"left_children":[1,3,5,7,9,-1,11,-1,-1,13,15,-1,-1,17,19,21,23,-1,25,-1,27,29,31,33,-1,-1,-1,-1,-1,-1,-1,-1,-1,-1,-1],"loss_changes":[2.8487424E3,1.0856418E3,4.926504E2,3.6660034E1,3.9803006E2,0E0,2.0063452E2,0E0,0E0,1.4547551E2,1.4906378E2,0E0,0E0,1.7359299E1,1.1996738E2,1.4541821E2,1.01627365E2,0E0,3.8057575E0,0E0,2.173563E0,1.22318054E2,1.9801073E1,3.83659E1,0E0,0E0,0E0,0E0,0E0,0E0,0E0,0E0,0E0,0E0,0E0],"parents":[2147483647,0,0,1,1,2,2,3,3,4,4,6,6,9,9,10,10,13,13,14,14,15,15,16,16,18,18,20,20,21,21,22,22,23,23],"right_children":[2,4,6,8,10,-1,12,-1,-1,14,16,-1,-1,18,20,22,24,-1,26,-1,28,30,32,34,-1,-1,-1,-1,-1,-1,-1,-1,-1,-1,-1],"split_conditions":[6.63E-1,4.93E-1,3.495E3,3.571E3,4.092E3,1.5244325E0,4.391E3,-1.8373857E0,-7.557692E0,3.656E3,5.47E-1,1.1295346E1,3.5039856E0,5.17E-1,5.71E-1,8E0,1.034E4,-5.200867E-1,3.333E3,3.1078355E0,7E0,4.897E3,5.3E-1,1.586E3,1.6386292E0,-6.84906E-2,5.262497E-1,3.6140442E-1,-1.0500184E-1,-4.346265E0,-2.469452E-1,-9.376122E-1,3.1888735E-1,-1.4604859E0,-2.9544252E-1],"split_indices":[3,3,2,1,1,0,1,0,0,1,3,0,0,3,3,0,2,0,1,0,0,1,3,2,0,0,0,0,0,0,0,0,0,0,0],"split_type":[0,0,0,0,0,0,0,0,0,0,0,0,0,0,0,0,0,0,0,0,0,0,0,0,0,0,0,0,0,0,0,0,0,0,0],"sum_hessian":[3.8E1,3.3E1,5E0,2E0,3.1E1,2E0,3E0,1E0,1E0,1.1E1,2E1,1E0,2E0,6E0,5E0,7E0,1.3E1,2E0,4E0,3E0,2E0,3E0,4E0,1.2E1,1E0,1E0,3E0,1E0,1E0,2E0,1E0,3E0,1E0,3E0,9E0],"tree_param":{"num_deleted":"0","num_feature":"4","num_nodes":"35","size_leaf_vector":"1"}},{"base_weights":[7.2835284E-1,-1.6623976E0,2.2063019E1,-1.7746267E1,-1.9433863E-1,9.601044E0,2.424512E0,-1.5617799E0,-6.4240403E0,3.0154185E0,-2.0821798E0,-3.287557E-1,5.1466217E0,-2.9873672E0,4.646464E0,8.5876465E-1,-1.137207E0,7.0710573E0,1.454422E0,-3.7574208E0,2.6287434E0,4.0518495E-1,1.6857239E0,6.774902E-2,3.1869507E-1,-5.8218386E-2,-4.1607058E-1,1.0485398E0,3.2062135E0,6.41272E-1,-8.925477E-2,-1.8229935E0,-5.187386E-1,1.3928375E0,-2.0990296E-1],"categories":[],"categories_nodes":[],"categories_segments":[],"categories_sizes":[],"default_left":[0,0,0,0,0,0,0,0,0,0,0,0,0,0,0,0,0,0,0,0,0,0,0,0,0,0,0,0,0,0,0,0,0,0,0],"id":11,"left_children":[1,3,5,7,9,-1,-1,-1,-1,11,13,15,17,19,21,23,25,27,29,31,33,-1,-1,-1,-1,-1,-1,-1,-1,-1,-1,-1,-1,-1,-1],"loss_changes":[2.0259061E3,8.465857E2,2.9728003E2,2.6486694E1,2.1230203E2,0E0,0E0,0E0,0E0,9.4344475E1,1.4787573E2,6.7369075E0,4.6558884E1,9.6371414E1,2.0275574E0,1.4660239E-1,6.728506E-1,2.7304657E1,5.423316E0,7.416585E1,2.335925E1,0E0,0E0,0E0,0E0,0E0,0E0,0E0,0E0,0E0,0E0,0E0,0E0,0E0,0E0],"parents":[2147483647,0,0,1,1,2,2,3,3,4,4,9,9,10,10,11,11,12,12,13,13,14,14,15,15,16,16,17,17,18,18,19,19,20,20],"right_children":[2,4,6,8,10,-1,-1,-1,-1,12,14,16,18,20,22,24,26,28,30,32,34,-1,-1,-1,-1,-1,-1,-1,-1,-1,-1,-1,-1,-1,-1],"split_conditions":[6.72E-1,4.93E-1,4.391E3,3.571E3,4.092E3,9.601044E0,2.424512E0,-1.5617799E0,-6.4240403E0,3.635E3,6.23E-1,4.65E3,3.802E3,1.034E4,4.3E3,8E0,3.333E3,3.718E3,7E0,8E0,7.5E0,4.0518495E-1,1.6857239E0,6.774902E-2,3.1869507E-1,-5.8218386E-2,-4.1607058E-1,1.0485398E0,3.2062135E0,6.41272E-1,-8.925477E-2,-1.8229935E0,-5.187386E-1,1.3928375E0,-2.0990296E-1],"split_indices":[3,3,1,1,1,0,0,0,0,1,3,2,1,2,1,0,1,1,0,0,0,0,0,0,0,0,0,0,0,0,0,0,0,0,0],"split_type":[0,0,0,0,0,0,0,0,0,0,0,0,0,0,0,0,0,0,0,0,0,0,0,0,0,0,0,0,0,0,0,0,0,0,0],"sum_hessian":[3.8E1,3.5E1,3E0,2E0,3.3E1,1E0,2E0,1E0,1E0,1.2E1,2.1E1,5E0,7E0,1.9E1,2E0,2E0,3E0,4E0,3E0,1.7E1,2E0,1E0,1E0,1E0,1E0,1E0,2E0,3E0,1E0,2E0,1E0,7E0,1E1,1E0,1E0],"tree_param":{"num_deleted":"0","num_feature":"4","num_nodes":"35","size_leaf_vector":"1"}},{"base_weights":[7.583266E-1,-1.2285352E0,1.84505E1,-1.5084331E1,3.0168422E-2,8.160883E0,1.9396118E0,-1.3275146E0,-5.460434E0,-3.69949E0,1.3200437E0,-3.020563E0,-1.6447906E0,3.335434E0,-3.802714E-1,-3.3838577E0,7.542114E-2,6.1708984E0,1.1463394E0,-3.026291E0,1.2453674E0,2.9635621E-2,-1.3733002E0,2.7088624E-1,-1.0716019E-1,2.1418855E0,3.444031E-1,-2.3098756E-1,5.7402956E-1,-4.837189E-2,-1.7512788E0,9.670818E-2,1.4328644E0],"categories":[],"categories_nodes":[],"categories_segments":[],"categories_sizes":[],"default_left":[0,0,0,0,0,0,0,0,0,0,0,0,0,0,0,0,0,0,0,0,0,0,0,0,0,0,0,0,0,0,0,0,0],"id":12,"left_children":[1,3,5,7,9,-1,-1,-1,-1,11,13,-1,15,17,19,21,23,25,27,29,31,-1,-1,-1,-1,-1,-1,-1,-1,-1,-1,-1,-1],"loss_changes":[1.3935912E3,6.2830725E2,2.4371948E2,1.9136414E1,1.684505E2,0E0,0E0,0E0,0E0,1.0121774E2,9.036513E1,0E0,2.4187723E1,6.7411255E1,6.8290924E1,1.7082657E1,2.1125796E0,1.6132492E1,1.3233086E1,4.7385944E1,3.1050295E1,0E0,0E0,0E0,0E0,0E0,0E0,0E0,0E0,0E0,0E0,0E0,0E0],"parents":[2147483647,0,0,1,1,2,2,3,3,4,4,9,9,10,10,12,12,13,13,14,14,15,15,16,16,17,17,18,18,19,19,20,20],"right_children":[2,4,6,8,10,-1,-1,-1,-1,12,14,-1,16,18,20,22,24,26,28,30,32,-1,-1,-1,-1,-1,-1,-1,-1,-1,-1,-1,-1],"split_conditions":[6.72E-1,4.93E-1,4.391E3,3.571E3,3.274E3,8.160883E0,1.9396118E0,-1.3275146E0,-5.460434E0,8E0,6.524E3,-3.020563E0,1.586E3,7.5E0,5.47E-1,8.5E0,3.601E3,6.08E-1,5.18E-1,5.29E-1,6.63E-1,2.9635621E-2,-1.3733002E0,2.7088624E-1,-1.0716019E-1,2.1418855E0,3.444031E-1,-2.3098756E-1,5.7402956E-1,-4.837189E-2,-1.7512788E0,9.670818E-2,1.4328644E0],"split_indices":[3,3,1,1,2,0,0,0,0,0,2,0,2,0,3,0,1,3,3,3,3,0,0,0,0,0,0,0,0,0,0,0,0],"split_type":[0,0,0,0,0,0,0,0,0,0,0,0,0,0,0,0,0,0,0,0,0,0,0,0,0,0,0,0,0,0,0,0,0],"sum_hessian":[3.8E1,3.5E1,3E0,2E0,3.3E1,1E0,2E0,1E0,1E0,8E0,2.5E1,1E0,7E0,1.1E1,1.4E1,3E0,4E0,4E0,7E0,5E0,9E0,1E0,2E0,1E0,3E0,3E0,1E0,2E0,5E0,3E0,2E0,8E0,1E0],"tree_param":{"num_deleted":"0","num_feature":"4","num_nodes":"33","size_leaf_vector":"1"}},{"base_weights":[5.736859E-1,-1.0941137E0,1.544046E1,-1.2821675E1,-2.7148977E-2,4.630829E-1,5.867462E0,-1.1283875E0,-4.641367E0,-3.0563693E0,1.0224715E0,-2.5674775E0,-1.298851E0,2.570577E0,-2.8417766E-1,-2.704628E0,8.554077E-2,4.81687E0,8.4532166E-1,-2.418335E0,1.0247345E0,2.5186159E-2,-1.098642E0,2.3025514E-1,-8.3049774E-2,6.043305E-1,2.4039917E0,-2.0190431E-1,4.390808E-1,-3.748398E-2,-1.4010224E0,-4.4081498E-2,1.1422852E0],"categories":[],"categories_nodes":[],"categories_segments":[],"categories_sizes":[],"default_left":[0,0,0,0,0,0,0,0,0,0,0,0,0,0,0,0,0,0,0,0,0,0,0,0,0,0,0,0,0,0,0,0,0],"id":13,"left_children":[1,3,5,7,9,-1,-1,-1,-1,11,13,-1,15,17,19,21,23,25,27,29,31,-1,-1,-1,-1,-1,-1,-1,-1,-1,-1,-1,-1],"loss_changes":[9.8389075E2,4.5011615E2,1.9870471E2,1.3825897E1,1.11229126E2,0E0,0E0,0E0,0E0,7.591113E1,5.3324104E1,0E0,1.5800525E1,4.243335E1,4.437952E1,1.0987852E1,1.4481239E0,2.8646736E1,8.495092E0,3.0401169E1,3.3165764E1,0E0,0E0,0E0,0E0,0E0,0E0,0E0,0E0,0E0,0E0,0E0,0E0],"parents":[2147483647,0,0,1,1,2,2,3,3,4,4,9,9,10,10,12,12,13,13,14,14,15,15,16,16,17,17,18,18,19,19,20,20],"right_children":[2,4,6,8,10,-1,-1,-1,-1,12,14,-1,16,18,20,22,24,26,28,30,32,-1,-1,-1,-1,-1,-1,-1,-1,-1,-1,-1,-1],"split_conditions":[6.72E-1,4.93E-1,6.58E0,3.571E3,3.274E3,4.630829E-1,5.867462E0,-1.1283875E0,-4.641367E0,8E0,6.524E3,-2.5674775E0,1.586E3,7.5E0,5.47E-1,8.5E0,3.601E3,4.121E3,3.635E3,5.29E-1,1.034E4,2.5186159E-2,-1.098642E0,2.3025514E-1,-8.3049774E-2,6.043305E-1,2.4039917E0,-2.0190431E-1,4.390808E-1,-3.748398E-2,-1.4010224E0,-4.4081498E-2,1.1422852E0],"split_indices":[3,3,0,1,2,0,0,0,0,0,2,0,2,0,3,0,1,2,1,3,2,0,0,0,0,0,0,0,0,0,0,0,0],"split_type":[0,0,0,0,0,0,0,0,0,0,0,0,0,0,0,0,0,0,0,0,0,0,0,0,0,0,0,0,0,0,0,0,0],"sum_hessian":[3.8E1,3.5E1,3E0,2E0,3.3E1,1E0,2E0,1E0,1E0,8E0,2.5E1,1E0,7E0,1.1E1,1.4E1,3E0,4E0,4E0,7E0,5E0,9E0,1E0,2E0,1E0,3E0,3E0,1E0,2E0,5E0,3E0,2E0,7E0,2E0],"tree_param":{"num_deleted":"0","num_feature":"4","num_nodes":"33","size_leaf_vector":"1"}},{"base_weights":[4.008648E-1,-1.3169484E0,1.0068329E1,-1.0898427E1,-3.775301E-1,5.306641E-1,1.3775833E1,-9.591294E-1,-3.945163E0,1.0078949E0,-2.4799123E0,6.056635E0,1.472577E0,1.687675E0,-8.595378E-1,-4.3094735E0,-7.977524E-1,3.160261E0,3.5481092E-1,1.9571228E-1,-1.292395E0,-2.3963168E0,-4.734192E-1,-2.3632376E-1,-7.0916295E-1,2.0433931E0,4.2496035E-1,-7.0500183E-1,6.296662E-1,-6.0921025E-1,-1.8004304E-1,5.2180484E-2,-2.2415467E-1,-4.5399782E-1,1.7314272E-1],"categories":[],"categories_nodes":[],"categories_segments":[],"categories_sizes":[],"default_left":[0,0,0,0,0,0,0,0,0,0,0,0,0,0,0,0,0,0,0,0,0,0,0,0,0,0,0,0,0,0,0,0,0,0,0],"id":14,"left_children":[1,3,5,7,9,-1,11,-1,-1,13,15,-1,-1,17,19,21,23,25,27,-1,29,-1,31,33,-1,-1,-1,-1,-1,-1,-1,-1,-1,-1,-1],"loss_changes":[6.6092847E2,3.0192004E2,1.6025366E2,9.989288E0,9.570566E1,0E0,1.283623E2,0E0,0E0,2.6839489E1,3.6571106E1,0E0,0E0,2.832006E1,4.7697773E0,8.0878204E1,6.475494E0,3.4916557E1,4.738906E1,0E0,1.3367548E0,0E0,8.388476E-1,8.14499E0,0E0,0E0,0E0,0E0,0E0,0E0,0E0,0E0,0E0,0E0,0E0],"parents":[2147483647,0,0,1,1,2,2,3,3,4,4,6,6,9,9,10,10,13,13,14,14,15,15,16,16,17,17,18,18,20,20,22,22,23,23],"right_children":[2,4,6,8,10,-1,12,-1,-1,14,16,-1,-1,18,20,22,24,26,28,-1,30,-1,32,34,-1,-1,-1,-1,-1,-1,-1,-1,-1,-1,-1],"split_conditions":[6.63E-1,4.93E-1,3.495E3,3.571E3,4.332E3,5.306641E-1,4.391E3,-9.591294E-1,-3.945163E0,8.5E0,8E0,6.056635E0,1.472577E0,6.524E3,3.601E3,8.507E3,1E1,5.45E-1,6.905E3,1.9571228E-1,1.333E3,-2.3963168E0,4.593E3,5.3E-1,-7.0916295E-1,2.0433931E0,4.2496035E-1,-7.0500183E-1,6.296662E-1,-6.0921025E-1,-1.8004304E-1,5.2180484E-2,-2.2415467E-1,-4.5399782E-1,1.7314272E-1],"split_indices":[3,3,2,1,1,0,1,0,0,0,0,0,0,2,1,2,0,3,2,0,2,0,1,3,0,0,0,0,0,0,0,0,0,0,0],"split_type":[0,0,0,0,0,0,0,0,0,0,0,0,0,0,0,0,0,0,0,0,0,0,0,0,0,0,0,0,0,0,0,0,0,0,0],"sum_hessian":[3.8E1,3.3E1,5E0,2E0,3.1E1,2E0,3E0,1E0,1E0,1.9E1,1.2E1,1E0,2E0,1.4E1,5E0,5E0,7E0,6E0,8E0,1E0,4E0,2E0,3E0,6E0,1E0,1E0,5E0,3E0,5E0,1E0,3E0,1E0,2E0,2E0,4E0],"tree_param":{"num_deleted":"0","num_feature":"4","num_nodes":"35","size_leaf_vector":"1"}},{"base_weights":[3.1642035E-1,-1.1178373E0,8.391144E0,-9.263661E0,-3.192339E-1,4.2453617E-1,1.1525375E1,-8.152588E-1,-3.353389E0,7.955017E-1,-2.0096552E0,5.1481385E0,1.1780579E0,1.3409098E0,-7.0060223E-1,-3.4446766E0,-6.821823E-1,2.5647845E0,2.4001735E-1,1.6635132E-1,-1.0625244E0,-1.9170532E0,-3.7438202E-1,-2.0555332E-1,-6.027878E-1,1.7368836E0,3.187134E-1,-5.46373E-1,4.7225648E-1,-5.1783144E-1,-1.3953096E-1,4.4352725E-2,-1.7932129E-1,-3.6319584E-1,1.3158509E-1],"categories":[],"categories_nodes":[],"categories_segments":[],"categories_sizes":[],"default_left":[0,0,0,0,0,0,0,0,0,0,0,0,0,0,0,0,0,0,0,0,0,0,0,0,0,0,0,0,0,0,0,0,0,0,0],"id":15,"left_children":[1,3,5,7,9,-1,11,-1,-1,13,15,-1,-1,17,19,21,23,25,27,-1,29,-1,31,33,-1,-1,-1,-1,-1,-1,-1,-1,-1,-1,-1],"loss_changes":[4.6104807E2,2.1822238E2,1.14877014E2,7.2173767E0,6.1898617E1,0E0,1.03886475E2,0E0,0E0,1.725919E1,2.2414482E1,0E0,0E0,1.9594725E1,3.31468E0,5.1868965E1,4.647297E0,2.7764252E1,2.7617645E1,0E0,1.1793685E0,0E0,5.5493796E-1,5.0631986E0,0E0,0E0,0E0,0E0,0E0,0E0,0E0,0E0,0E0,0E0,0E0],"parents":[2147483647,0,0,1,1,2,2,3,3,4,4,6,6,9,9,10,10,13,13,14,14,15,15,16,16,17,17,18,18,20,20,22,22,23,23],"right_children":[2,4,6,8,10,-1,12,-1,-1,14,16,-1,-1,18,20,22,24,26,28,-1,30,-1,32,34,-1,-1,-1,-1,-1,-1,-1,-1,-1,-1,-1],"split_conditions":[6.63E-1,4.93E-1,3.495E3,3.571E3,4.332E3,4.2453617E-1,4.391E3,-8.152588E-1,-3.353389E0,8.5E0,8E0,5.1481385E0,1.1780579E0,6.524E3,3.601E3,8.507E3,1E1,5.45E-1,6.905E3,1.6635132E-1,1.333E3,-1.9170532E0,4.593E3,5.3E-1,-6.027878E-1,1.7368836E0,3.187134E-1,-5.46373E-1,4.7225648E-1,-5.1783144E-1,-1.3953096E-1,4.4352725E-2,-1.7932129E-1,-3.6319584E-1,1.3158509E-1],"split_indices":[3,3,2,1,1,0,1,0,0,0,0,0,0,2,1,2,0,3,2,0,2,0,1,3,0,0,0,0,0,0,0,0,0,0,0],"split_type":[0,0,0,0,0,0,0,0,0,0,0,0,0,0,0,0,0,0,0,0,0,0,0,0,0,0,0,0,0,0,0,0,0,0,0],"sum_hessian":[3.8E1,3.3E1,5E0,2E0,3.1E1,2E0,3E0,1E0,1E0,1.9E1,1.2E1,1E0,2E0,1.4E1,5E0,5E0,7E0,6E0,8E0,1E0,4E0,2E0,3E0,6E0,1E0,1E0,5E0,3E0,5E0,1E0,3E0,1E0,2E0,2E0,4E0],"tree_param":{"num_deleted":"0","num_feature":"4","num_nodes":"35","size_leaf_vector":"1"}},{"base_weights":[2.519085E-1,-9.4614995E-1,6.998922E0,-7.874115E0,-2.6708603E-1,3.3962405E-1,9.6493225E0,-6.929718E-1,-2.85038E0,6.313782E-1,-1.6287936E0,4.375919E0,9.4245E-1,1.0707438E0,-5.722656E-1,-2.7532756E0,-5.818329E-1,2.6770325E0,4.460856E-1,-4.401581E-1,-9.984131E-2,-1.5336426E0,-2.9580688E-1,-1.7698015E-1,-5.1237035E-1,8.657838E-2,1.476352E0,-9.8750615E-1,3.2553822E-1,-1.9611512E-1,6.0617067E-2,3.7701417E-2,-1.4345704E-1,6.586762E-2,-3.8343203E-1],"categories":[],"categories_nodes":[],"categories_segments":[],"categories_sizes":[],"default_left":[0,0,0,0,0,0,0,0,0,0,0,0,0,0,0,0,0,0,0,0,0,0,0,0,0,0,0,0,0,0,0,0,0,0,0],"id":16,"left_children":[1,3,5,7,9,-1,11,-1,-1,13,15,-1,-1,17,19,21,23,25,27,-1,29,-1,31,33,-1,-1,-1,-1,-1,-1,-1,-1,-1,-1,-1],"loss_changes":[3.2187137E2,1.57851E2,8.237311E1,5.214386E0,4.017864E1,0E0,8.269519E1,0E0,0E0,1.1189546E1,1.3702805E1,0E0,0E0,1.3856535E1,2.3902278E0,3.3268833E1,3.3448699E0,2.0019737E1,3.2235012E1,0E0,9.681585E-1,0E0,3.6757705E-1,3.337096E0,0E0,0E0,0E0,0E0,0E0,0E0,0E0,0E0,0E0,0E0,0E0],"parents":[2147483647,0,0,1,1,2,2,3,3,4,4,6,6,9,9,10,10,13,13,14,14,15,15,16,16,17,17,18,18,20,20,22,22,23,23],"right_children":[2,4,6,8,10,-1,12,-1,-1,14,16,-1,-1,18,20,22,24,26,28,-1,30,-1,32,34,-1,-1,-1,-1,-1,-1,-1,-1,-1,-1,-1],"split_conditions":[6.63E-1,4.93E-1,3.495E3,3.571E3,4.332E3,3.3962405E-1,4.391E3,-6.929718E-1,-2.85038E0,8.5E0,8E0,4.375919E0,9.4245E-1,5.45E-1,1.333E3,8.507E3,1E1,3.656E3,5.47E-1,-4.401581E-1,5.11E-1,-1.5336426E0,4.593E3,5.975E3,-5.1237035E-1,8.657838E-2,1.476352E0,-9.8750615E-1,3.2553822E-1,-1.9611512E-1,6.0617067E-2,3.7701417E-2,-1.4345704E-1,6.586762E-2,-3.8343203E-1],"split_indices":[3,3,2,1,1,0,1,0,0,0,0,0,0,3,2,2,0,1,3,0,3,0,1,2,0,0,0,0,0,0,0,0,0,0,0],"split_type":[0,0,0,0,0,0,0,0,0,0,0,0,0,0,0,0,0,0,0,0,0,0,0,0,0,0,0,0,0,0,0,0,0,0,0],"sum_hessian":[3.8E1,3.3E1,5E0,2E0,3.1E1,2E0,3E0,1E0,1E0,1.9E1,1.2E1,1E0,2E0,1.4E1,5E0,5E0,7E0,3E0,1.1E1,1E0,4E0,2E0,3E0,6E0,1E0,2E0,1E0,1E0,1E1,1E0,3E0,1E0,2E0,5E0,1E0],"tree_param":{"num_deleted":"0","num_feature":"4","num_nodes":"35","size_leaf_vector":"1"}},{"base_weights":[1.7557624E-1,-8.2958984E-1,5.8422546E0,-6.693003E0,-2.5397015E-1,2.717041E-1,8.084122E0,-5.890274E-1,-2.4228241E0,4.5821533E-1,-1.330104E0,3.7195313E0,7.539612E-1,2.0725933E-1,7.8395694E-1,-2.369342E0,-6.0496014E-1,8.9607745E-1,-8.518753E-1,-1.305304E0,-7.8617096E-1,3.5224915E-1,-1.142273E0,-2.181571E-3,5.4019165E-1,3.1738283E-4,-6.8213505E-1,-3.2591859E-1,-9.718934E-2,1.413025E-1,4.6697997E-2,-3.4185793E-2,-3.9754394E-1],"categories":[],"categories_nodes":[],"categories_segments":[],"categories_sizes":[],"default_left":[0,0,0,0,0,0,0,0,0,0,0,0,0,0,0,0,0,0,0,0,0,0,0,0,0,0,0,0,0,0,0,0,0],"id":17,"left_children":[1,3,5,7,9,-1,11,-1,-1,13,15,-1,-1,17,-1,19,21,23,25,-1,27,29,31,-1,-1,-1,-1,-1,-1,-1,-1,-1,-1],"loss_changes":[2.2698883E2,1.1305345E2,5.908127E1,3.767334E0,2.5134495E1,0E0,6.497897E1,0E0,0E0,1.0274467E1,8.363403E0,0E0,0E0,1.4624819E1,0E0,1.2265984E1,5.031252E0,9.818714E0,9.704747E0,0E0,2.0310926E-1,2.0069867E-2,9.7731066E-1,0E0,0E0,0E0,0E0,0E0,0E0,0E0,0E0,0E0,0E0],"parents":[2147483647,0,0,1,1,2,2,3,3,4,4,6,6,9,9,10,10,13,13,15,15,16,16,17,17,18,18,20,20,21,21,22,22],"right_children":[2,4,6,8,10,-1,12,-1,-1,14,16,-1,-1,18,-1,20,22,24,26,-1,28,30,32,-1,-1,-1,-1,-1,-1,-1,-1,-1,-1],"split_conditions":[6.63E-1,4.93E-1,3.495E3,3.571E3,4.332E3,2.717041E-1,4.391E3,-5.890274E-1,-2.4228241E0,4.318E3,5.3E-1,3.7195313E0,7.539612E-1,4.092E3,7.8395694E-1,2.449E3,5.63E-1,3.656E3,6.524E3,-1.305304E0,4.476E3,4.447E3,1.25E3,-2.181571E-3,5.4019165E-1,3.1738283E-4,-6.8213505E-1,-3.2591859E-1,-9.718934E-2,1.413025E-1,4.6697997E-2,-3.4185793E-2,-3.9754394E-1],"split_indices":[3,3,2,1,1,0,1,0,0,1,3,0,0,1,0,2,3,1,2,0,1,1,2,0,0,0,0,0,0,0,0,0,0],"split_type":[0,0,0,0,0,0,0,0,0,0,0,0,0,0,0,0,0,0,0,0,0,0,0,0,0,0,0,0,0,0,0,0,0],"sum_hessian":[3.8E1,3.3E1,5E0,2E0,3.1E1,2E0,3E0,1E0,1E0,1.9E1,1.2E1,1E0,2E0,1.8E1,1E0,4E0,8E0,1.1E1,7E0,1E0,3E0,3E0,5E0,6E0,5E0,5E0,2E0,1E0,2E0,1E0,2E0,1E0,4E0],"tree_param":{"num_deleted":"0","num_feature":"4","num_nodes":"33","size_leaf_vector":"1"}},{"base_weights":[1.3319749E-1,-7.0846736E-1,4.880432E0,-5.6890564E0,-2.1939754E-1,2.1735841E-1,6.777252E0,-5.006745E-1,-2.059401E0,-1.5121002E0,2.0304321E-1,3.1615999E0,6.031678E-1,-1.1095093E0,-6.7143905E-1,8.4560925E-1,-4.551415E-1,-1.1581848E0,3.6361694E-1,7.19808E-2,2.0690186E0,-1.0416657E0,1.1249542E0,-5.000397E-1,-7.905274E-2,3.0995179E-2,1.3263245E-1,-1.609076E-1,1.9977723E-1,1.1738709E0,1.8894655E-1,-2.7593995E-2,-4.9783787E-1,6.663666E-1,5.737305E-3],"categories":[],"categories_nodes":[],"categories_segments":[],"categories_sizes":[],"default_left":[0,0,0,0,0,0,0,0,0,0,0,0,0,0,0,0,0,0,0,0,0,0,0,0,0,0,0,0,0,0,0,0,0,0,0],"id":18,"left_children":[1,3,5,7,9,-1,11,-1,-1,13,15,-1,-1,-1,17,19,21,23,25,27,29,31,33,-1,-1,-1,-1,-1,-1,-1,-1,-1,-1,-1,-1],"loss_changes":[1.5928526E2,8.157094E1,4.2387726E1,2.7218475E0,1.7781912E1,0E0,5.0529404E1,0E0,0E0,1.2220034E1,1.0958051E1,0E0,0E0,0E0,3.9477992E0,1.2155105E1,1.3219761E1,1.8360066E0,1.5616298E-2,3.609046E0,1.0804129E1,5.7144613E0,4.8066635E0,0E0,0E0,0E0,0E0,0E0,0E0,0E0,0E0,0E0,0E0,0E0,0E0],"parents":[2147483647,0,0,1,1,2,2,3,3,4,4,6,6,9,9,10,10,14,14,15,15,16,16,17,17,18,18,19,19,20,20,21,21,22,22],"right_children":[2,4,6,8,10,-1,12,-1,-1,14,16,-1,-1,-1,18,20,22,24,26,28,30,32,34,-1,-1,-1,-1,-1,-1,-1,-1,-1,-1,-1,-1],"split_conditions":[6.63E-1,4.93E-1,3.495E3,3.571E3,2.449E3,2.1735841E-1,4.391E3,-5.006745E-1,-2.059401E0,8E0,6.58E3,3.1615999E0,6.031678E-1,-1.1095093E0,1.976E3,4.725E3,1.034E4,5.78E-1,8.5E0,5.52E-1,7.5E0,4.207E3,1.1868E4,-5.000397E-1,-7.905274E-2,3.0995179E-2,1.3263245E-1,-1.609076E-1,1.9977723E-1,1.1738709E0,1.8894655E-1,-2.7593995E-2,-4.9783787E-1,6.663666E-1,5.737305E-3],"split_indices":[3,3,2,1,2,0,1,0,0,0,2,0,0,0,2,2,2,3,0,3,0,1,2,0,0,0,0,0,0,0,0,0,0,0,0],"split_type":[0,0,0,0,0,0,0,0,0,0,0,0,0,0,0,0,0,0,0,0,0,0,0,0,0,0,0,0,0,0,0,0,0,0,0],"sum_hessian":[3.8E1,3.3E1,5E0,2E0,3.1E1,2E0,3E0,1E0,1E0,7E0,2.4E1,1E0,2E0,1E0,6E0,1.2E1,1.2E1,4E0,2E0,8E0,4E0,9E0,3E0,2E0,2E0,1E0,1E0,4E0,4E0,1E0,3E0,4E0,5E0,1E0,2E0],"tree_param":{"num_deleted":"0","num_feature":"4","num_nodes":"35","size_leaf_vector":"1"}},{"base_weights":[1.302991E-1,-5.705387E-1,4.0799966E0,-4.8357034E0,-1.5285015E-1,1.7388918E-1,5.685272E0,-4.2557374E-1,-1.7504929E0,-1.2490959E0,2.040625E-1,2.6873567E0,4.8253787E-1,-9.430848E-1,-5.2936226E-1,6.9974226E-1,-3.0731437E-1,-9.2655027E-1,3.0907187E-1,5.4704454E-2,1.7208618E0,-9.0238106E-1,8.2526857E-1,-4.0003052E-1,-6.324463E-2,2.6344301E-2,1.1273804E-1,-1.2229248E-1,1.5183288E-1,9.9778754E-1,1.4642945E-1,-2.0972902E-2,-4.663129E-1,4.2871705E-1,-1.6082764E-2],"categories":[],"categories_nodes":[],"categories_segments":[],"categories_sizes":[],"default_left":[0,0,0,0,0,0,0,0,0,0,0,0,0,0,0,0,0,0,0,0,0,0,0,0,0,0,0,0,0,0,0,0,0,0,0],"id":19,"left_children":[1,3,5,7,9,-1,11,-1,-1,13,15,-1,-1,-1,17,19,21,23,25,27,29,31,33,-1,-1,-1,-1,-1,-1,-1,-1,-1,-1,-1,-1],"loss_changes":[1.1028359E2,5.9832214E1,3.0418953E1,1.9665451E0,1.2775341E1,0E0,3.8958496E1,0E0,0E0,9.244285E0,6.5520196E0,0E0,0E0,0E0,2.6174831E0,8.468451E0,9.506218E0,1.1749988E0,1.1287898E-2,2.08466E0,8.270129E0,4.77624E0,2.7298906E0,0E0,0E0,0E0,0E0,0E0,0E0,0E0,0E0,0E0,0E0,0E0,0E0],"parents":[2147483647,0,0,1,1,2,2,3,3,4,4,6,6,9,9,10,10,14,14,15,15,16,16,17,17,18,18,19,19,20,20,21,21,22,22],"right_children":[2,4,6,8,10,-1,12,-1,-1,14,16,-1,-1,-1,18,20,22,24,26,28,30,32,34,-1,-1,-1,-1,-1,-1,-1,-1,-1,-1,-1,-1],"split_conditions":[6.63E-1,4.93E-1,3.495E3,3.571E3,2.449E3,1.7388918E-1,4.391E3,-4.2557374E-1,-1.7504929E0,8E0,6.58E3,2.6873567E0,4.8253787E-1,-9.430848E-1,1.976E3,4.725E3,9.794E3,5.78E-1,8.5E0,5.52E-1,7.5E0,4.207E3,4.332E3,-4.0003052E-1,-6.324463E-2,2.6344301E-2,1.1273804E-1,-1.2229248E-1,1.5183288E-1,9.9778754E-1,1.4642945E-1,-2.0972902E-2,-4.663129E-1,4.2871705E-1,-1.6082764E-2],"split_indices":[3,3,2,1,2,0,1,0,0,0,2,0,0,0,2,2,2,3,0,3,0,1,1,0,0,0,0,0,0,0,0,0,0,0,0],"split_type":[0,0,0,0,0,0,0,0,0,0,0,0,0,0,0,0,0,0,0,0,0,0,0,0,0,0,0,0,0,0,0,0,0,0,0],"sum_hessian":[3.8E1,3.3E1,5E0,2E0,3.1E1,2E0,3E0,1E0,1E0,7E0,2.4E1,1E0,2E0,1E0,6E0,1.2E1,1.2E1,4E0,2E0,8E0,4E0,8E0,4E0,2E0,2E0,1E0,1E0,4E0,4E0,1E0,3E0,4E0,4E0,2E0,2E0],"tree_param":{"num_deleted":"0","num_feature":"4","num_nodes":"35","size_leaf_vector":"1"}},{"base_weights":[1.1683851E-1,-4.6832454E-1,3.4132893E0,-4.1103516E0,-1.12249374E-1,1.3911134E-1,4.772156E0,-3.617386E-1,-1.4879197E0,-1.0327797E0,1.868103E-1,2.28425E0,3.860291E-1,-8.0162203E-1,-4.1687012E-1,5.8010864E-1,-2.2085807E-1,-7.4124753E-1,2.6271567E-1,4.1575115E-2,1.4334472E0,-5.9243774E-1,8.986918E-2,-3.2002562E-1,-5.0598145E-2,2.23938E-2,9.582825E-2,-1.5980224E-1,8.452279E-2,8.481171E-1,1.134842E-1,1.1546448E-1,-2.7703857E-1],"categories":[],"categories_nodes":[],"categories_segments":[],"categories_sizes":[],"default_left":[0,0,0,0,0,0,0,0,0,0,0,0,0,0,0,0,0,0,0,0,0,0,0,0,0,0,0,0,0,0,0,0,0],"id":20,"left_children":[1,3,5,7,9,-1,11,-1,-1,13,15,-1,-1,-1,17,19,21,23,25,27,29,-1,31,-1,-1,-1,-1,-1,-1,-1,-1,-1,-1],"loss_changes":[7.682802E1,4.363102E1,2.1835678E1,1.4207954E0,9.002326E0,0E0,2.9824455E1,0E0,0E0,6.9633455E0,4.136504E0,0E0,0E0,0E0,1.7378331E0,5.9145727E0,7.2624106E0,7.519798E-1,8.153349E-3,1.3913213E0,6.2830315E0,0E0,3.9427667E0,0E0,0E0,0E0,0E0,0E0,0E0,0E0,0E0,0E0,0E0],"parents":[2147483647,0,0,1,1,2,2,3,3,4,4,6,6,9,9,10,10,14,14,15,15,16,16,17,17,18,18,19,19,20,20,22,22],"right_children":[2,4,6,8,10,-1,12,-1,-1,14,16,-1,-1,-1,18,20,22,24,26,28,30,-1,32,-1,-1,-1,-1,-1,-1,-1,-1,-1,-1],"split_conditions":[6.63E-1,4.93E-1,3.495E3,3.571E3,2.449E3,1.3911134E-1,4.391E3,-3.617386E-1,-1.4879197E0,8E0,6.58E3,2.28425E0,3.860291E-1,-8.0162203E-1,1.976E3,4.725E3,6.594E3,5.78E-1,8.5E0,3.635E3,7.5E0,-5.9243774E-1,6.02E-1,-3.2002562E-1,-5.0598145E-2,2.23938E-2,9.582825E-2,-1.5980224E-1,8.452279E-2,8.481171E-1,1.134842E-1,1.1546448E-1,-2.7703857E-1],"split_indices":[3,3,2,1,2,0,1,0,0,0,2,0,0,0,2,2,2,3,0,1,0,0,3,0,0,0,0,0,0,0,0,0,0],"split_type":[0,0,0,0,0,0,0,0,0,0,0,0,0,0,0,0,0,0,0,0,0,0,0,0,0,0,0,0,0,0,0,0,0],"sum_hessian":[3.8E1,3.3E1,5E0,2E0,3.1E1,2E0,3E0,1E0,1E0,7E0,2.4E1,1E0,2E0,1E0,6E0,1.2E1,1.2E1,4E0,2E0,8E0,4E0,1E0,1.1E1,2E0,2E0,1E0,1E0,2E0,6E0,1E0,3E0,9E0,2E0],"tree_param":{"num_deleted":"0","num_feature":"4","num_nodes":"33","size_leaf_vector":"1"}},{"base_weights":[8.275663E-2,-4.0934396E-1,2.8575337E0,-3.493805E0,-1.0738373E-1,1.11291505E-1,4.008072E0,-3.0747986E-1,-1.2647324E0,-8.546982E-1,1.3605225E-1,1.9416138E0,3.088196E-1,-6.813767E-1,-3.2786778E-1,5.057144E-1,-1.9051906E-1,-5.929993E-1,2.233073E-1,2.0728217E-2,1.4705048E0,-5.506409E-1,5.6782836E-1,-2.5602114E-1,-4.047852E-2,1.9033814E-2,8.145447E-2,9.74469E-2,-8.6253665E-2,7.208954E-1,1.0760498E-1,2.2316895E-2,-2.9391786E-1,3.4368286E-1,-5.976868E-2],"categories":[],"categories_nodes":[],"categories_segments":[],"categories_sizes":[],"default_left":[0,0,0,0,0,0,0,0,0,0,0,0,0,0,0,0,0,0,0,0,0,0,0,0,0,0,0,0,0,0,0,0,0,0,0],"id":21,"left_children":[1,3,5,7,9,-1,11,-1,-1,13,15,-1,-1,-1,17,19,21,23,25,27,29,31,33,-1,-1,-1,-1,-1,-1,-1,-1,-1,-1,-1,-1],"loss_changes":[5.4423023E1,3.1291893E1,1.5678421E1,1.0264664E0,5.9378266E0,0E0,2.2695183E1,0E0,0E0,5.225611E0,3.1143746E0,0E0,0E0,0E0,1.1553582E0,5.5844393E0,4.1360335E0,4.8127007E-1,5.8930367E-3,9.369993E-1,3.2850943E0,2.7547953E0,2.444195E0,0E0,0E0,0E0,0E0,0E0,0E0,0E0,0E0,0E0,0E0,0E0,0E0],"parents":[2147483647,0,0,1,1,2,2,3,3,4,4,6,6,9,9,10,10,14,14,15,15,16,16,17,17,18,18,19,19,20,20,21,21,22,22],"right_children":[2,4,6,8,10,-1,12,-1,-1,14,16,-1,-1,-1,18,20,22,24,26,28,30,32,34,-1,-1,-1,-1,-1,-1,-1,-1,-1,-1,-1,-1],"split_conditions":[6.63E-1,4.93E-1,3.495E3,3.571E3,2.449E3,1.11291505E-1,4.391E3,-3.0747986E-1,-1.2647324E0,8E0,6.524E3,1.9416138E0,3.088196E-1,-6.813767E-1,1.976E3,4.725E3,9.794E3,5.78E-1,8.5E0,4.083E3,7.5E0,3.865E3,1.1868E4,-2.5602114E-1,-4.047852E-2,1.9033814E-2,8.145447E-2,9.74469E-2,-8.6253665E-2,7.208954E-1,1.0760498E-1,2.2316895E-2,-2.9391786E-1,3.4368286E-1,-5.976868E-2],"split_indices":[3,3,2,1,2,0,1,0,0,0,2,0,0,0,2,2,2,3,0,2,0,1,2,0,0,0,0,0,0,0,0,0,0,0,0],"split_type":[0,0,0,0,0,0,0,0,0,0,0,0,0,0,0,0,0,0,0,0,0,0,0,0,0,0,0,0,0,0,0,0,0,0,0],"sum_hessian":[3.8E1,3.3E1,5E0,2E0,3.1E1,2E0,3E0,1E0,1E0,7E0,2.4E1,1E0,2E0,1E0,6E0,1.1E1,1.3E1,4E0,2E0,8E0,3E0,9E0,4E0,2E0,2E0,1E0,1E0,4E0,4E0,1E0,2E0,4E0,5E0,2E0,2E0],"tree_param":{"num_deleted":"0","num_feature":"4","num_nodes":"35","size_leaf_vector":"1"}},{"base_weights":[7.751934E-2,-3.335338E-1,2.3939006E0,-2.9697266E0,-7.596779E-2,3.8256226E0,7.216339E-1,-2.613556E-1,-1.0750214E0,-7.0796967E-1,1.2931152E-1,1.6503755E0,7.115479E-2,3.0540162E-1,8.505249E-2,-5.791718E-1,-2.5751606E-1,4.23968E-1,-1.324877E-1,-4.7440186E-1,1.89799E-1,1.574368E-2,1.2364807E0,-6.307286E-1,3.2003403E-1,5.941773E-3,-1.8087159E-1,1.617737E-2,6.923218E-2,-7.423096E-2,8.273254E-2,6.1276245E-1,8.608399E-2,1.6955568E-2,-4.697693E-1,1.8846895E-1,-1.2091065E-1],"categories":[],"categories_nodes":[],"categories_segments":[],"categories_sizes":[],"default_left":[0,0,0,0,0,0,0,0,0,0,0,0,0,0,0,0,0,0,0,0,0,0,0,0,0,0,0,0,0,0,0,0,0,0,0,0,0],"id":22,"left_children":[1,3,5,7,9,11,13,-1,-1,15,17,-1,-1,-1,-1,-1,19,21,23,25,27,29,31,33,35,-1,-1,-1,-1,-1,-1,-1,-1,-1,-1,-1,-1],"loss_changes":[3.793252E1,2.2860178E1,1.1604626E1,7.4167633E-1,4.24313E0,1.673388E1,2.307787E-1,0E0,0E0,3.9086533E0,1.9846916E0,0E0,0E0,0E0,0E0,0E0,7.69155E-1,3.9607823E0,3.3583622E0,3.294779E-1,4.2579547E-3,6.841531E-1,2.475428E0,4.587348E0,2.0359745E0,0E0,0E0,0E0,0E0,0E0,0E0,0E0,0E0,0E0,0E0,0E0,0E0],"parents":[2147483647,0,0,1,1,2,2,3,3,4,4,5,5,6,6,9,9,10,10,16,16,17,17,18,18,19,19,20,20,21,21,22,22,23,23,24,24],"right_children":[2,4,6,8,10,12,14,-1,-1,16,18,-1,-1,-1,-1,-1,20,22,24,26,28,30,32,34,36,-1,-1,-1,-1,-1,-1,-1,-1,-1,-1,-1,-1],"split_conditions":[6.63E-1,4.93E-1,4.391E3,3.571E3,2.449E3,7.5E0,4.716E3,-2.613556E-1,-1.0750214E0,8E0,6.524E3,1.6503755E0,7.115479E-2,3.0540162E-1,8.505249E-2,-5.791718E-1,1.976E3,4.725E3,8.507E3,8.5E0,8.5E0,5.52E-1,7.5E0,3.865E3,7.5E0,5.941773E-3,-1.8087159E-1,1.617737E-2,6.923218E-2,-7.423096E-2,8.273254E-2,6.1276245E-1,8.608399E-2,1.6955568E-2,-4.697693E-1,1.8846895E-1,-1.2091065E-1],"split_indices":[3,3,1,1,2,0,1,0,0,0,2,0,0,0,0,0,2,2,2,0,0,3,0,1,0,0,0,0,0,0,0,0,0,0,0,0,0],"split_type":[0,0,0,0,0,0,0,0,0,0,0,0,0,0,0,0,0,0,0,0,0,0,0,0,0,0,0,0,0,0,0,0,0,0,0,0,0],"sum_hessian":[3.8E1,3.3E1,5E0,2E0,3.1E1,2E0,3E0,1E0,1E0,7E0,2.4E1,1E0,1E0,1E0,2E0,1E0,6E0,1.1E1,1.3E1,4E0,2E0,8E0,3E0,6E0,7E0,1E0,3E0,1E0,1E0,4E0,4E0,1E0,2E0,4E0,2E0,5E0,2E0],"tree_param":{"num_deleted":"0","num_feature":"4","num_nodes":"37","size_leaf_vector":"1"}},{"base_weights":[6.5261446E-2,-2.8297424E-1,2.0277202E0,-2.5242717E0,-6.400967E-2,3.25177E0,6.027527E-1,-2.2215272E-1,-9.1376954E-1,1.12436526E-1,-6.074028E-1,1.4028168E0,6.0479738E-2,2.5958863E-1,6.8041995E-2,1.1870011E-2,8.459676E-1,-4.9229738E-1,-2.2532E-1,4.2258707E-1,-2.3535156E-1,-2.4270631E-2,4.0495607E-1,-1.21388756E-1,-1.2733613E-1,1.2412262E-2,5.208435E-1,-1.12348594E-1,1.3381653E-1,1.2536622E-2,-6.402741E-2],"categories":[],"categories_nodes":[],"categories_segments":[],"categories_sizes":[],"default_left":[0,0,0,0,0,0,0,0,0,0,0,0,0,0,0,0,0,0,0,0,0,0,0,0,0,0,0,0,0,0,0],"id":23,"left_children":[1,3,5,7,9,11,13,-1,-1,15,17,-1,-1,-1,-1,19,21,-1,23,25,27,-1,-1,29,-1,-1,-1,-1,-1,-1,-1],"loss_changes":[2.722632E1,1.6524424E1,8.505377E0,5.3585815E-1,3.1364431E0,1.2090258E1,1.9855285E-1,0E0,0E0,1.8341749E0,2.789583E0,0E0,0E0,0E0,0E0,2.4348333E0,1.5103157E0,0E0,9.3349636E-2,4.4348755E0,1.5892475E0,0E0,0E0,9.9027894E-2,0E0,0E0,0E0,0E0,0E0,0E0,0E0],"parents":[2147483647,0,0,1,1,2,2,3,3,4,4,5,5,6,6,9,9,10,10,15,15,16,16,18,18,19,19,20,20,23,23],"right_children":[2,4,6,8,10,12,14,-1,-1,16,18,-1,-1,-1,-1,20,22,-1,24,26,28,-1,-1,30,-1,-1,-1,-1,-1,-1,-1],"split_conditions":[6.63E-1,4.93E-1,4.391E3,3.571E3,4.593E3,7.5E0,4.716E3,-2.2215272E-1,-9.1376954E-1,9.794E3,4.897E3,1.4028168E0,6.0479738E-2,2.5958863E-1,6.8041995E-2,3.802E3,6E0,-4.9229738E-1,1E1,3.718E3,4.476E3,-2.4270631E-2,4.0495607E-1,2.302E3,-1.2733613E-1,1.2412262E-2,5.208435E-1,-1.12348594E-1,1.3381653E-1,1.2536622E-2,-6.402741E-2],"split_indices":[3,3,1,1,1,0,1,0,0,2,1,0,0,0,0,1,0,0,0,1,1,0,0,2,0,0,0,0,0,0,0],"split_type":[0,0,0,0,0,0,0,0,0,0,0,0,0,0,0,0,0,0,0,0,0,0,0,0,0,0,0,0,0,0,0],"sum_hessian":[3.8E1,3.3E1,5E0,2E0,3.1E1,2E0,3E0,1E0,1E0,2.4E1,7E0,1E0,1E0,1E0,2E0,2.2E1,2E0,1E0,6E0,8E0,1.4E1,1E0,1E0,5E0,1E0,7E0,1E0,1.2E1,2E0,2E0,3E0],"tree_param":{"num_deleted":"0","num_feature":"4","num_nodes":"31","size_leaf_vector":"1"}},{"base_weights":[6.92616E-2,-2.237091E-1,1.7178854E0,-2.14563E0,-3.6538124E-2,2.7639973E0,5.0382996E-1,-1.8882753E-1,-7.76706E-1,1.1613281E-1,-5.0906754E-1,1.192392E0,5.1406864E-2,2.2065125E-1,5.4431155E-2,3.243886E-2,7.190755E-1,-4.1845095E-1,-1.8326677E-1,2.607198E-1,-3.516337E-1,-2.0626832E-2,3.4421083E-1,-9.3551636E-2,-1.08233646E-1,2.3968141E-1,-2.2879862E-3,-3.7217104E-1,-2.5633622E-2,-5.8306884E-2,1.6319276E-3],"categories":[],"categories_nodes":[],"categories_segments":[],"categories_sizes":[],"default_left":[0,0,0,0,0,0,0,0,0,0,0,0,0,0,0,0,0,0,0,0,0,0,0,0,0,0,0,0,0,0,0],"id":24,"left_children":[1,3,5,7,9,11,13,-1,-1,15,17,-1,-1,-1,-1,19,21,-1,23,25,27,-1,-1,29,-1,-1,-1,-1,-1,-1,-1],"loss_changes":[1.9221247E1,1.2152348E1,6.227642E0,3.872156E-1,2.367648E0,8.735205E0,1.6531253E-1,0E0,0E0,1.2382406E0,2.0530465E0,0E0,0E0,0E0,0E0,2.1082363E0,1.091159E0,0E0,7.772717E-2,2.1725273E0,2.0236192E0,0E0,0E0,6.0930006E-2,0E0,0E0,0E0,0E0,0E0,0E0,0E0],"parents":[2147483647,0,0,1,1,2,2,3,3,4,4,5,5,6,6,9,9,10,10,15,15,16,16,18,18,19,19,20,20,23,23],"right_children":[2,4,6,8,10,12,14,-1,-1,16,18,-1,-1,-1,-1,20,22,-1,24,26,28,-1,-1,30,-1,-1,-1,-1,-1,-1,-1],"split_conditions":[6.63E-1,4.93E-1,4.391E3,3.571E3,4.593E3,7.5E0,4.716E3,-1.8882753E-1,-7.76706E-1,9.794E3,4.897E3,1.192392E0,5.1406864E-2,2.2065125E-1,5.4431155E-2,6.58E3,6E0,-4.1845095E-1,1E1,7.5E0,6.594E3,-2.0626832E-2,3.4421083E-1,8E0,-1.08233646E-1,2.3968141E-1,-2.2879862E-3,-3.7217104E-1,-2.5633622E-2,-5.8306884E-2,1.6319276E-3],"split_indices":[3,3,1,1,1,0,1,0,0,2,1,0,0,0,0,2,0,0,0,0,2,0,0,0,0,0,0,0,0,0,0],"split_type":[0,0,0,0,0,0,0,0,0,0,0,0,0,0,0,0,0,0,0,0,0,0,0,0,0,0,0,0,0,0,0],"sum_hessian":[3.8E1,3.3E1,5E0,2E0,3.1E1,2E0,3E0,1E0,1E0,2.4E1,7E0,1E0,1E0,1E0,2E0,2.2E1,2E0,1E0,6E0,1.4E1,8E0,1E0,1E0,5E0,1E0,4E0,1E1,1E0,7E0,2E0,3E0],"tree_param":{"num_deleted":"0","num_feature":"4","num_nodes":"31","size_leaf_vector":"1"}},{"base_weights":[5.189084E-2,-1.9736077E-1,1.4556681E0,-1.8237814E0,-3.8716316E-2,2.074646E0,4.3542482E-2,-1.6050111E-1,-6.6020054E-1,8.780762E-2,-4.2926407E-1,5.138957E-1,1.0135345E0,3.5455662E-1,-5.8577593E-2,-3.5568237E-1,-1.5184239E-1,1.8755494E-1,4.369812E-2,5.990982E-2,4.0675965E-1,-8.5698444E-1,1.0500895E-1,-7.4930824E-2,-9.199677E-2,-6.2451176E-2,5.5189516E-2,-3.1634676E-1,-6.929627E-2,7.683106E-2,-1.123581E-1,9.70459E-3,-4.0997315E-2],"categories":[],"categories_nodes":[],"categories_segments":[],"categories_sizes":[],"default_left":[0,0,0,0,0,0,0,0,0,0,0,0,0,0,0,0,0,0,0,0,0,0,0,0,0,0,0,0,0,0,0,0,0],"id":25,"left_children":[1,3,5,7,9,11,-1,-1,-1,13,15,17,-1,19,21,-1,23,-1,-1,25,-1,27,29,31,-1,-1,-1,-1,-1,-1,-1,-1,-1],"loss_changes":[1.3933148E1,8.702159E0,4.566003E0,2.7980518E-1,1.6189291E0,6.403471E0,0E0,0E0,0E0,9.969718E-1,1.4985838E0,3.187543E-2,0E0,2.5740623E0,2.3103375E0,0E0,6.0370654E-2,0E0,0E0,3.043503E-1,0E0,1.2733793E-1,1.1827468E0,4.4152852E-2,0E0,0E0,0E0,0E0,0E0,0E0,0E0,0E0,0E0],"parents":[2147483647,0,0,1,1,2,2,3,3,4,4,5,5,9,9,10,10,11,11,13,13,14,14,16,16,19,19,21,21,22,22,23,23],"right_children":[2,4,6,8,10,12,-1,-1,-1,14,16,18,-1,20,22,-1,24,-1,-1,26,-1,28,30,32,-1,-1,-1,-1,-1,-1,-1,-1,-1],"split_conditions":[6.63E-1,4.93E-1,4.716E3,3.571E3,4.593E3,6.72E-1,4.3542482E-2,-1.6050111E-1,-6.6020054E-1,5.45E-1,4.897E3,7.5E0,1.0135345E0,5.4E-1,5.52E-1,-3.5568237E-1,1E1,1.8755494E-1,4.369812E-2,5.17E-1,4.0675965E-1,7.5E0,6.08E-1,2.302E3,-9.199677E-2,-6.2451176E-2,5.5189516E-2,-3.1634676E-1,-6.929627E-2,7.683106E-2,-1.123581E-1,9.70459E-3,-4.0997315E-2],"split_indices":[3,3,1,1,1,3,0,0,0,3,1,0,0,3,3,0,0,0,0,3,0,0,3,2,0,0,0,0,0,0,0,0,0],"split_type":[0,0,0,0,0,0,0,0,0,0,0,0,0,0,0,0,0,0,0,0,0,0,0,0,0,0,0,0,0,0,0,0,0],"sum_hessian":[3.8E1,3.3E1,5E0,2E0,3.1E1,3E0,2E0,1E0,1E0,2.4E1,7E0,2E0,1E0,8E0,1.6E1,1E0,6E0,1E0,1E0,7E0,1E0,2E0,1.4E1,5E0,1E0,2E0,5E0,1E0,1E0,1.1E1,3E0,2E0,3E0],"tree_param":{"num_deleted":"0","num_feature":"4","num_nodes":"33","size_leaf_vector":"1"}},{"base_weights":[3.547551E-2,-1.770181E-1,1.2336935E0,-1.5502218E0,-4.274845E-2,1.763443E0,3.4838866E-2,-1.3642731E-1,-5.611725E-1,-3.8459396E-1,6.835205E-2,4.3680826E-1,8.615021E-1,-3.0233002E-1,-1.5160261E-1,1.30446E-1,-2.902527E-1,1.5942079E-1,3.7142947E-2,-2.9121095E-1,1.3161214E-1,3.8558155E-2,5.3430176E-1,-2.4670413E-2,-1.37146E-1,-1.321045E-1,-1.3500976E-2,1.0171509E-2,4.9053956E-2,7.376953E-2,-5.1791385E-2,2.6354982E-2,2.810486E-1],"categories":[],"categories_nodes":[],"categories_segments":[],"categories_sizes":[],"default_left":[0,0,0,0,0,0,0,0,0,0,0,0,0,0,0,0,0,0,0,0,0,0,0,0,0,0,0,0,0,0,0,0,0],"id":26,"left_children":[1,3,5,7,9,11,-1,-1,-1,13,15,17,-1,-1,19,21,23,-1,-1,25,27,29,31,-1,-1,-1,-1,-1,-1,-1,-1,-1,-1],"loss_changes":[1.0148319E1,6.2026362E0,3.3473864E0,2.0214796E-1,1.2416224E0,4.626499E0,0E0,0E0,0E0,1.0087708E0,5.945419E-1,2.3030818E-2,0E0,0E0,3.1510085E-1,7.958059E-1,1.0127947E-1,0E0,0E0,1.637767E-1,3.806956E-3,8.744511E-1,6.3653517E-1,0E0,0E0,0E0,0E0,0E0,0E0,0E0,0E0,0E0,0E0],"parents":[2147483647,0,0,1,1,2,2,3,3,4,4,5,5,9,9,10,10,11,11,14,14,15,15,16,16,19,19,20,20,21,21,22,22],"right_children":[2,4,6,8,10,12,-1,-1,-1,14,16,18,-1,-1,20,22,24,-1,-1,26,28,30,32,-1,-1,-1,-1,-1,-1,-1,-1,-1,-1],"split_conditions":[6.63E-1,4.93E-1,4.716E3,3.571E3,2.449E3,6.72E-1,3.4838866E-2,-1.3642731E-1,-5.611725E-1,8E0,6.08E-1,7.5E0,8.615021E-1,-3.0233002E-1,1.976E3,5.8E-1,4.3E3,1.5942079E-1,3.7142947E-2,5.78E-1,8.5E0,6.524E3,1.034E4,-2.4670413E-2,-1.37146E-1,-1.321045E-1,-1.3500976E-2,1.0171509E-2,4.9053956E-2,7.376953E-2,-5.1791385E-2,2.6354982E-2,2.810486E-1],"split_indices":[3,3,1,1,2,3,0,0,0,0,3,0,0,0,2,3,1,0,0,3,0,2,2,0,0,0,0,0,0,0,0,0,0],"split_type":[0,0,0,0,0,0,0,0,0,0,0,0,0,0,0,0,0,0,0,0,0,0,0,0,0,0,0,0,0,0,0,0,0],"sum_hessian":[3.8E1,3.3E1,5E0,2E0,3.1E1,3E0,2E0,1E0,1E0,7E0,2.4E1,2E0,1E0,1E0,6E0,2.1E1,3E0,1E0,1E0,4E0,2E0,1.8E1,3E0,2E0,1E0,2E0,2E0,1E0,1E0,9E0,9E0,2E0,1E0],"tree_param":{"num_deleted":"0","num_feature":"4","num_nodes":"33","size_leaf_vector":"1"}},{"base_weights":[2.9292962E-2,-1.5093905E-1,1.0457255E0,-1.3176981E0,-3.683853E-2,1.4989166E0,2.7868653E-2,-1.1596528E-1,-4.7699893E-1,-2.3378092E-1,1.2932672E-1,3.7127686E-1,7.322754E-1,-3.3223101E-1,2.956543E-2,7.92216E-1,-3.047943E-3,1.3550721E-1,3.1567384E-2,-5.5703735E-1,-1.7829895E-1,-2.7655032E-2,1.4145915E-1,3.346802E-1,2.1817017E-2,-2.2751726E-1,1.5438537E-1,-7.2692875E-3,-2.1796876E-1,4.1693117E-2,-7.304339E-2,6.0159303E-2,3.4973146E-3,7.411194E-3,-2.6112673E-1,1.0986198E-1,-7.646942E-2],"categories":[],"categories_nodes":[],"categories_segments":[],"categories_sizes":[],"default_left":[0,0,0,0,0,0,0,0,0,0,0,0,0,0,0,0,0,0,0,0,0,0,0,0,0,0,0,0,0,0,0,0,0,0,0,0,0],"id":27,"left_children":[1,3,5,7,9,11,-1,-1,-1,13,15,17,-1,19,21,23,25,-1,-1,27,29,-1,31,-1,-1,33,35,-1,-1,-1,-1,-1,-1,-1,-1,-1,-1],"loss_changes":[7.302394E0,4.4778037E0,2.451642E0,1.4603472E-1,1.0774335E0,3.3426962E0,0E0,0E0,0E0,3.987196E-1,1.58191E0,1.6653836E-2,0E0,2.8133464E-1,8.115485E-2,6.1688817E-1,6.005485E-1,0E0,0E0,3.436911E-1,1.992757E-1,0E0,2.0665102E-2,0E0,0E0,1.1565833E0,9.6029454E-1,0E0,0E0,0E0,0E0,0E0,0E0,0E0,0E0,0E0,0E0],"parents":[2147483647,0,0,1,1,2,2,3,3,4,4,5,5,9,9,10,10,11,11,13,13,14,14,15,15,16,16,19,19,20,20,22,22,25,25,26,26],"right_children":[2,4,6,8,10,12,-1,-1,-1,14,16,18,-1,20,22,24,26,-1,-1,28,30,-1,32,-1,-1,34,36,-1,-1,-1,-1,-1,-1,-1,-1,-1,-1],"split_conditions":[6.63E-1,4.93E-1,4.716E3,3.571E3,4.686E3,6.72E-1,2.7868653E-2,-1.1596528E-1,-4.7699893E-1,5.78E-1,5.915E3,7.5E0,7.322754E-1,8E0,4.3E3,7.5E0,5.47E-1,1.3550721E-1,3.1567384E-2,7.5E0,3.601E3,-2.7655032E-2,7.5E0,3.346802E-1,2.1817017E-2,5.4E-1,5.93E-1,-7.2692875E-3,-2.1796876E-1,4.1693117E-2,-7.304339E-2,6.0159303E-2,3.4973146E-3,7.411194E-3,-2.6112673E-1,1.0986198E-1,-7.646942E-2],"split_indices":[3,3,1,1,2,3,0,0,0,3,2,0,0,0,1,0,3,0,0,0,1,0,0,0,0,3,3,0,0,0,0,0,0,0,0,0,0],"split_type":[0,0,0,0,0,0,0,0,0,0,0,0,0,0,0,0,0,0,0,0,0,0,0,0,0,0,0,0,0,0,0,0,0,0,0,0,0],"sum_hessian":[3.8E1,3.3E1,5E0,2E0,3.1E1,3E0,2E0,1E0,1E0,1.4E1,1.7E1,2E0,1E0,1E1,4E0,2E0,1.5E1,1E0,1E0,3E0,7E0,2E0,2E0,1E0,1E0,6E0,9E0,1E0,2E0,1E0,6E0,1E0,1E0,5E0,1E0,6E0,3E0],"tree_param":{"num_deleted":"0","num_feature":"4","num_nodes":"37","size_leaf_vector":"1"}},{"base_weights":[2.6911808E-2,-1.2557805E-1,8.8653564E-1,-1.120046E0,-2.8422356E-2,1.2740784E0,2.229004E-2,-9.857026E-2,-4.0545046E-1,1.3488363E-1,-1.6293165E-1,3.1559244E-1,6.2243044E-1,6.259308E-1,-4.0039062E-2,-4.7999573E-1,-6.751912E-2,1.151825E-1,2.6834108E-2,-2.746582E-4,2.5055543E-1,-3.3822632E-1,3.1451926E-1,-2.242859E-1,-4.2474367E-2,-2.2273254E-1,-1.0154724E-2,-2.2195588E-1,-4.4393923E-2,2.3606874E-1,-3.5517886E-2,2.975464E-3,-9.1076665E-2,1.2659913E-2,-5.438538E-2],"categories":[],"categories_nodes":[],"categories_segments":[],"categories_sizes":[],"default_left":[0,0,0,0,0,0,0,0,0,0,0,0,0,0,0,0,0,0,0,0,0,0,0,0,0,0,0,0,0,0,0,0,0,0,0],"id":28,"left_children":[1,3,5,7,9,11,-1,-1,-1,13,15,17,-1,19,21,23,25,-1,-1,-1,-1,27,29,-1,-1,31,33,-1,-1,-1,-1,-1,-1,-1,-1],"loss_changes":[5.2236023E0,3.2531848E0,1.7939911E0,1.0551667E-1,7.2489434E-1,2.4150186E0,0E0,0E0,0E0,1.313491E0,5.121251E-1,1.2028158E-2,0E0,5.2544487E-1,1.3750759E0,2.5642234E-1,1.3129409E-1,0E0,0E0,0E0,0E0,4.2537338E-1,1.3201482E0,0E0,0E0,7.825619E-2,1.15163036E-1,0E0,0E0,0E0,0E0,0E0,0E0,0E0,0E0],"parents":[2147483647,0,0,1,1,2,2,3,3,4,4,5,5,9,9,10,10,11,11,13,13,14,14,15,15,16,16,21,21,22,22,25,25,26,26],"right_children":[2,4,6,8,10,12,-1,-1,-1,14,16,18,-1,20,22,24,26,-1,-1,-1,-1,28,30,-1,-1,32,34,-1,-1,-1,-1,-1,-1,-1,-1],"split_conditions":[6.63E-1,4.93E-1,4.716E3,3.571E3,7.5E0,6.72E-1,2.229004E-2,-9.857026E-2,-4.0545046E-1,5.45E-1,8E0,7.5E0,6.2243044E-1,3.357E3,4.3E3,2.449E3,1.586E3,1.151825E-1,2.6834108E-2,-2.746582E-4,2.5055543E-1,5.47E-1,5.93E-1,-2.242859E-1,-4.2474367E-2,8.5E0,6.524E3,-2.2195588E-1,-4.4393923E-2,2.3606874E-1,-3.5517886E-2,2.975464E-3,-9.1076665E-2,1.2659913E-2,-5.438538E-2],"split_indices":[3,3,1,1,0,3,0,0,0,3,0,0,0,1,1,2,2,0,0,0,0,3,3,0,0,0,2,0,0,0,0,0,0,0,0],"split_type":[0,0,0,0,0,0,0,0,0,0,0,0,0,0,0,0,0,0,0,0,0,0,0,0,0,0,0,0,0,0,0,0,0,0,0],"sum_hessian":[3.8E1,3.3E1,5E0,2E0,3.1E1,3E0,2E0,1E0,1E0,1.4E1,1.7E1,2E0,1E0,3E0,1.1E1,3E0,1.4E1,1E0,1E0,1E0,2E0,6E0,5E0,1E0,2E0,3E0,1.1E1,1E0,5E0,2E0,3E0,1E0,2E0,9E0,2E0],"tree_param":{"num_deleted":"0","num_feature":"4","num_nodes":"35","size_leaf_vector":"1"}},{"base_weights":[2.064788E-2,-1.089684E-1,7.516988E-1,-8.3071136E-1,-1.2325164E-2,1.082962E0,1.7834473E-2,-1.0252991E-1,-3.4463197E-1,2.287801E-1,-1.0613483E-1,2.682495E-1,5.2906495E-1,4.4530028E-1,-3.3496093E-2,-3.6024857E-1,2.7555466E-2,9.79065E-2,2.2805788E-2,1.4512634E-1,2.4689943E-1,-3.0908205E-2,9.643555E-3,-6.6561127E-1,-4.3908693E-2,-4.273987E-2,3.464152E-1,-2.3803712E-4,5.820923E-2,1.0299683E-2,-3.0090332E-3,-2.5287172E-1,-2.0059206E-2,1.3671112E-2,-6.0273744E-2,8.489227E-2,-4.718878E-2,-3.110962E-2,1.8699646E-1],"categories":[],"categories_nodes":[],"categories_segments":[],"categories_sizes":[],"default_left":[0,0,0,0,0,0,0,0,0,0,0,0,0,0,0,0,0,0,0,0,0,0,0,0,0,0,0,0,0,0,0,0,0,0,0,0,0,0,0],"id":29,"left_children":[1,3,5,7,9,11,-1,-1,-1,13,15,17,-1,19,21,23,25,-1,-1,27,-1,-1,29,31,33,35,37,-1,-1,-1,-1,-1,-1,-1,-1,-1,-1,-1,-1],"loss_changes":[3.7773993E0,2.3613148E0,1.311523E0,2.2944689E-1,7.2543967E-1,1.7448621E0,0E0,0E0,0E0,5.2600867E-1,7.9129523E-1,8.699596E-3,0E0,4.4743645E-1,1.5991319E-2,7.43561E-1,3.7343538E-1,0E0,0E0,2.8698444E-2,0E0,0E0,2.287227E-3,3.6825824E-1,7.9398416E-2,5.6688607E-1,4.3855587E-1,0E0,0E0,0E0,0E0,0E0,0E0,0E0,0E0,0E0,0E0,0E0,0E0],"parents":[2147483647,0,0,1,1,2,2,3,3,4,4,5,5,9,9,10,10,11,11,13,13,14,14,15,15,16,16,19,19,22,22,23,23,24,24,25,25,26,26],"right_children":[2,4,6,8,10,12,-1,-1,-1,14,16,18,-1,20,22,24,26,-1,-1,28,-1,-1,30,32,34,36,38,-1,-1,-1,-1,-1,-1,-1,-1,-1,-1,-1,-1],"split_conditions":[6.63E-1,5.11E-1,4.716E3,3.635E3,3.865E3,6.72E-1,1.7834473E-2,-1.0252991E-1,-3.4463197E-1,5.45E-1,5.47E-1,7.5E0,5.2906495E-1,3.656E3,5.52E-1,8E0,1.034E4,9.79065E-2,2.2805788E-2,3.357E3,2.4689943E-1,-3.0908205E-2,7E0,4.897E3,5.975E3,5.66E-1,6E0,-2.3803712E-4,5.820923E-2,1.0299683E-2,-3.0090332E-3,-2.5287172E-1,-2.0059206E-2,1.3671112E-2,-6.0273744E-2,8.489227E-2,-4.718878E-2,-3.110962E-2,1.8699646E-1],"split_indices":[3,3,1,1,1,3,0,0,0,3,3,0,0,1,3,0,2,0,0,1,0,0,0,1,2,3,0,0,0,0,0,0,0,0,0,0,0,0,0],"split_type":[0,0,0,0,0,0,0,0,0,0,0,0,0,0,0,0,0,0,0,0,0,0,0,0,0,0,0,0,0,0,0,0,0,0,0,0,0,0,0],"sum_hessian":[3.8E1,3.3E1,5E0,3E0,3E1,3E0,2E0,2E0,1E0,8E0,2.2E1,2E0,1E0,4E0,4E0,7E0,1.5E1,1E0,1E0,3E0,1E0,1E0,3E0,3E0,4E0,1.3E1,2E0,1E0,2E0,1E0,2E0,2E0,1E0,3E0,1E0,3E0,1E1,1E0,1E0],"tree_param":{"num_deleted":"0","num_feature":"4","num_nodes":"39","size_leaf_vector":"1"}},{"base_weights":[2.4083847E-2,-8.486759E-2,6.3746136E-1,-8.029785E-1,-1.4892578E-2,9.2051697E-1,1.427002E-2,-6.840363E-2,-2.929367E-1,1.0242716E-1,-1.11831665E-1,2.28007E-1,4.4970706E-1,4.244995E-1,-1.3465881E-2,-3.2673645E-1,-4.706828E-2,8.3221436E-2,1.9381715E-2,9.962972E-2,2.0986634E-1,-2.2181919E-1,2.318573E-1,-1.5271455E-1,-2.888489E-2,-1.2576294E-1,4.855347E-3,-2.0141603E-4,4.5034792E-2,-1.5073243E-1,-2.739258E-2,1.2054749E-1,-9.269714E-2,1.3513184E-2,-6.672821E-2,3.709717E-2,-1.911752E-2],"categories":[],"categories_nodes":[],"categories_segments":[],"categories_sizes":[],"default_left":[0,0,0,0,0,0,0,0,0,0,0,0,0,0,0,0,0,0,0,0,0,0,0,0,0,0,0,0,0,0,0,0,0,0,0,0,0],"id":30,"left_children":[1,3,5,7,9,11,-1,-1,-1,13,15,17,-1,19,21,23,25,-1,-1,27,-1,29,31,-1,-1,33,35,-1,-1,-1,-1,-1,-1,-1,-1,-1,-1],"loss_changes":[2.6604059E0,1.6965353E0,9.580519E-1,7.658708E-2,3.7538642E-1,1.2606981E0,0E0,0E0,0E0,5.6560546E-1,2.3514439E-1,6.2930435E-3,0E0,2.8773177E-1,6.647971E-1,1.1904505E-1,6.1902307E-2,0E0,0E0,1.52922645E-2,0E0,2.1049199E-1,6.7571986E-1,0E0,0E0,1.090847E-1,8.935488E-2,0E0,0E0,0E0,0E0,0E0,0E0,0E0,0E0,0E0,0E0],"parents":[2147483647,0,0,1,1,2,2,3,3,4,4,5,5,9,9,10,10,11,11,13,13,14,14,15,15,16,16,19,19,21,21,22,22,25,25,26,26],"right_children":[2,4,6,8,10,12,-1,-1,-1,14,16,18,-1,20,22,24,26,-1,-1,28,-1,30,32,-1,-1,34,36,-1,-1,-1,-1,-1,-1,-1,-1,-1,-1],"split_conditions":[6.63E-1,4.93E-1,4.716E3,3.571E3,7.5E0,6.72E-1,1.427002E-2,-6.840363E-2,-2.929367E-1,5.45E-1,8E0,7.5E0,4.4970706E-1,3.656E3,4.3E3,2.449E3,4.188E3,8.3221436E-2,1.9381715E-2,3.357E3,2.0986634E-1,5.47E-1,6.08E-1,-1.5271455E-1,-2.888489E-2,3.601E3,4.447E3,-2.0141603E-4,4.5034792E-2,-1.5073243E-1,-2.739258E-2,1.2054749E-1,-9.269714E-2,1.3513184E-2,-6.672821E-2,3.709717E-2,-1.911752E-2],"split_indices":[3,3,1,1,0,3,0,0,0,3,0,0,0,1,1,2,1,0,0,1,0,3,3,0,0,1,1,0,0,0,0,0,0,0,0,0,0],"split_type":[0,0,0,0,0,0,0,0,0,0,0,0,0,0,0,0,0,0,0,0,0,0,0,0,0,0,0,0,0,0,0,0,0,0,0,0,0],"sum_hessian":[3.8E1,3.3E1,5E0,2E0,3.1E1,3E0,2E0,1E0,1E0,1.4E1,1.7E1,2E0,1E0,3E0,1.1E1,3E0,1.4E1,1E0,1E0,2E0,1E0,6E0,5E0,1E0,2E0,5E0,9E0,1E0,1E0,1E0,5E0,4E0,1E0,2E0,3E0,3E0,6E0],"tree_param":{"num_deleted":"0","num_feature":"4","num_nodes":"37","size_leaf_vector":"1"}},{"base_weights":[1.9235464E-2,-7.334272E-2,5.406392E-1,-6.825358E-1,-1.3938904E-2,7.824249E-1,1.1413574E-2,-5.8145143E-2,-2.4899597E-1,1.2269898E-1,-7.274064E-2,1.9378662E-1,3.82251E-1,-6.0043335E-3,4.2500815E-1,-2.5507736E-1,2.2974014E-2,7.0733644E-2,1.6470337E-2,-4.4622805E-2,3.563581E-2,1.286316E-2,1.783905E-1,-4.5108032E-1,-4.725952E-2,-3.0188425E-2,2.6340738E-1,-1.4341736E-2,3.3050537E-2,-1.7195435E-1,-1.2716675E-2,6.4613344E-3,-4.836731E-2,5.539856E-2,-3.167142E-2,-2.2329712E-2,1.4086305E-1],"categories":[],"categories_nodes":[],"categories_segments":[],"categories_sizes":[],"default_left":[0,0,0,0,0,0,0,0,0,0,0,0,0,0,0,0,0,0,0,0,0,0,0,0,0,0,0,0,0,0,0,0,0,0,0,0,0],"id":31,"left_children":[1,3,5,7,9,11,-1,-1,-1,13,15,17,-1,19,21,23,25,-1,-1,-1,27,-1,-1,29,31,33,35,-1,-1,-1,-1,-1,-1,-1,-1,-1,-1],"loss_changes":[1.9222058E0,1.2208915E0,6.993526E-1,5.5320263E-2,2.660306E-1,9.109225E-1,0E0,0E0,0E0,3.9163378E-1,4.0726298E-1,4.551798E-3,0E0,5.284973E-2,1.6896272E-1,3.0454546E-1,2.1246426E-1,0E0,0E0,0E0,4.880055E-2,0E0,0E0,1.7530972E-1,4.267478E-2,2.4623977E-1,2.4387209E-1,0E0,0E0,0E0,0E0,0E0,0E0,0E0,0E0,0E0,0E0],"parents":[2147483647,0,0,1,1,2,2,3,3,4,4,5,5,9,9,10,10,11,11,13,13,14,14,15,15,16,16,20,20,23,23,24,24,25,25,26,26],"right_children":[2,4,6,8,10,12,-1,-1,-1,14,16,18,-1,20,22,24,26,-1,-1,-1,28,-1,-1,30,32,34,36,-1,-1,-1,-1,-1,-1,-1,-1,-1,-1],"split_conditions":[6.63E-1,4.93E-1,4.716E3,3.571E3,3.865E3,6.72E-1,1.1413574E-2,-5.8145143E-2,-2.4899597E-1,3.718E3,5.47E-1,7.5E0,3.82251E-1,5.11E-1,7E0,8E0,1.034E4,7.0733644E-2,1.6470337E-2,-4.4622805E-2,3.528E3,1.286316E-2,1.783905E-1,4.897E3,5.975E3,5.66E-1,6E0,-1.4341736E-2,3.3050537E-2,-1.7195435E-1,-1.2716675E-2,6.4613344E-3,-4.836731E-2,5.539856E-2,-3.167142E-2,-2.2329712E-2,1.4086305E-1],"split_indices":[3,3,1,1,1,3,0,0,0,1,3,0,0,3,0,0,2,0,0,0,1,0,0,1,2,3,0,0,0,0,0,0,0,0,0,0,0],"split_type":[0,0,0,0,0,0,0,0,0,0,0,0,0,0,0,0,0,0,0,0,0,0,0,0,0,0,0,0,0,0,0,0,0,0,0,0,0],"sum_hessian":[3.8E1,3.3E1,5E0,2E0,3.1E1,3E0,2E0,1E0,1E0,9E0,2.2E1,2E0,1E0,7E0,2E0,7E0,1.5E1,1E0,1E0,1E0,6E0,1E0,1E0,3E0,4E0,1.3E1,2E0,3E0,3E0,2E0,1E0,3E0,1E0,3E0,1E1,1E0,1E0],"tree_param":{"num_deleted":"0","num_feature":"4","num_nodes":"37","size_leaf_vector":"1"}},{"base_weights":[1.9997621E-2,-5.7988785E-2,4.5858765E-1,-5.801595E-1,-7.2231293E-3,6.650543E-1,9.13086E-3,-4.9424745E-2,-2.1164705E-1,7.2892256E-2,-7.358466E-2,1.6471355E-1,3.249115E-1,3.1155396E-1,-1.2736003E-2,-2.243576E-1,-2.84729E-2,6.0122684E-2,1.3998413E-2,7.845052E-2,1.5162964E-1,-1.8106079E-1,1.3336182E-1,-1.0401306E-1,-2.0401001E-2,-8.202108E-2,6.503296E-3,1.9775392E-3,3.3325195E-2,-3.987122E-3,-1.03320315E-1,1.1792603E-1,-1.4743653E-2,8.947754E-3,-4.3620303E-2,1.1303711E-2,-4.1111756E-2],"categories":[],"categories_nodes":[],"categories_segments":[],"categories_sizes":[],"default_left":[0,0,0,0,0,0,0,0,0,0,0,0,0,0,0,0,0,0,0,0,0,0,0,0,0,0,0,0,0,0,0,0,0,0,0,0,0],"id":32,"left_children":[1,3,5,7,9,11,-1,-1,-1,13,15,17,-1,19,21,23,25,-1,-1,27,-1,29,31,-1,-1,33,35,-1,-1,-1,-1,-1,-1,-1,-1,-1,-1],"loss_changes":[1.3605512E0,8.970929E-1,5.1015234E-1,3.9962053E-2,1.754943E-1,6.5814674E-1,0E0,0E0,0E0,3.1051075E-1,1.1604127E-1,3.2903925E-3,0E0,1.4112324E-1,3.192492E-1,5.294396E-2,2.8627079E-2,0E0,0E0,6.3027535E-3,0E0,1.5984473E-1,3.511304E-1,0E0,0E0,4.6869807E-2,4.9913935E-2,0E0,0E0,0E0,0E0,0E0,0E0,0E0,0E0,0E0,0E0],"parents":[2147483647,0,0,1,1,2,2,3,3,4,4,5,5,9,9,10,10,11,11,13,13,14,14,15,15,16,16,19,19,21,21,22,22,25,25,26,26],"right_children":[2,4,6,8,10,12,-1,-1,-1,14,16,18,-1,20,22,24,26,-1,-1,28,-1,30,32,-1,-1,34,36,-1,-1,-1,-1,-1,-1,-1,-1,-1,-1],"split_conditions":[6.63E-1,4.93E-1,4.716E3,3.571E3,7.5E0,6.72E-1,9.13086E-3,-4.9424745E-2,-2.1164705E-1,5.45E-1,8E0,7.5E0,3.249115E-1,3.656E3,4.258E3,2.449E3,4.188E3,6.0122684E-2,1.3998413E-2,3.357E3,1.5162964E-1,4.092E3,5.93E-1,-1.0401306E-1,-2.0401001E-2,3.601E3,6.524E3,1.9775392E-3,3.3325195E-2,-3.987122E-3,-1.03320315E-1,1.1792603E-1,-1.4743653E-2,8.947754E-3,-4.3620303E-2,1.1303711E-2,-4.1111756E-2],"split_indices":[3,3,1,1,0,3,0,0,0,3,0,0,0,1,1,2,1,0,0,1,0,1,3,0,0,1,2,0,0,0,0,0,0,0,0,0,0],"split_type":[0,0,0,0,0,0,0,0,0,0,0,0,0,0,0,0,0,0,0,0,0,0,0,0,0,0,0,0,0,0,0,0,0,0,0,0,0],"sum_hessian":[3.8E1,3.3E1,5E0,2E0,3.1E1,3E0,2E0,1E0,1E0,1.4E1,1.7E1,2E0,1E0,3E0,1.1E1,3E0,1.4E1,1E0,1E0,2E0,1E0,5E0,6E0,1E0,2E0,5E0,9E0,1E0,1E0,3E0,2E0,2E0,4E0,2E0,3E0,8E0,1E0],"tree_param":{"num_deleted":"0","num_feature":"4","num_nodes":"37","size_leaf_vector":"1"}},{"base_weights":[1.7619597E-2,-4.8443064E-2,3.890381E-1,-4.9313354E-1,-5.2394867E-3,5.653076E-1,7.2998046E-3,-4.2008974E-2,-1.7990112E-1,5.0210573E-2,-9.014423E-2,1.4001465E-1,2.76178E-1,-1.4207629E-3,1.0297852E-1,-1.8778686E-1,-2.5882296E-2,5.110474E-2,1.1901856E-2,1.4321463E-1,-8.567301E-2,-8.223878E-2,-1.1654664E-2,-7.182312E-2,3.0735016E-2,7.1624755E-3,1.2888795E-1,-8.682862E-2,-1.2251421E-2,3.0236209E-2,-1.9354248E-2],"categories":[],"categories_nodes":[],"categories_segments":[],"categories_sizes":[],"default_left":[0,0,0,0,0,0,0,0,0,0,0,0,0,0,0,0,0,0,0,0,0,0,0,0,0,0,0,0,0,0,0],"id":33,"left_children":[1,3,5,7,9,11,-1,-1,-1,13,15,17,-1,19,-1,21,23,-1,-1,25,27,-1,-1,-1,29,-1,-1,-1,-1,-1,-1],"loss_changes":[9.757851E-1,6.5063167E-1,3.719632E-1,2.8883874E-2,1.5518133E-1,4.7550547E-1,0E0,0E0,0E0,3.031001E-1,7.6710805E-2,2.373211E-3,0E0,2.3161508E-1,0E0,5.3648666E-2,1.1616277E-1,0E0,0E0,2.2900485E-1,9.78048E-2,0E0,0E0,0E0,5.9881628E-2,0E0,0E0,0E0,0E0,0E0,0E0],"parents":[2147483647,0,0,1,1,2,2,3,3,4,4,5,5,9,9,10,10,11,11,13,13,15,15,16,16,19,19,20,20,24,24],"right_children":[2,4,6,8,10,12,-1,-1,-1,14,16,18,-1,20,-1,22,24,-1,-1,26,28,-1,-1,-1,30,-1,-1,-1,-1,-1,-1],"split_conditions":[6.63E-1,4.93E-1,4.716E3,3.571E3,4.332E3,6.72E-1,7.2998046E-3,-4.2008974E-2,-1.7990112E-1,4.3E3,5.3E-1,7.5E0,2.76178E-1,5.45E-1,1.0297852E-1,4.897E3,4.345E3,5.110474E-2,1.1901856E-2,5.29E-1,5.47E-1,-8.223878E-2,-1.1654664E-2,-7.182312E-2,5.002E3,7.1624755E-3,1.2888795E-1,-8.682862E-2,-1.2251421E-2,3.0236209E-2,-1.9354248E-2],"split_indices":[3,3,1,1,1,3,0,0,0,1,3,0,0,3,0,1,1,0,0,3,3,0,0,0,1,0,0,0,0,0,0],"split_type":[0,0,0,0,0,0,0,0,0,0,0,0,0,0,0,0,0,0,0,0,0,0,0,0,0,0,0,0,0,0,0],"sum_hessian":[3.8E1,3.3E1,5E0,2E0,3.1E1,3E0,2E0,1E0,1E0,1.9E1,1.2E1,2E0,1E0,1.7E1,2E0,4E0,8E0,1E0,1E0,6E0,1.1E1,2E0,2E0,1E0,7E0,5E0,1E0,1E0,1E1,4E0,3E0],"tree_param":{"num_deleted":"0","num_feature":"4","num_nodes":"31","size_leaf_vector":"1"}},{"base_weights":[1.5153934E-2,-4.0864833E-2,3.3006796E-1,-3.684616E-1,2.72394E-3,4.8051453E-1,5.834961E-3,-4.5440678E-2,-1.5291595E-1,1.0844727E-1,-4.5455933E-2,1.19018555E-1,2.3475038E-1,-3.0334473E-2,1.7225865E-1,-1.478424E-1,1.2180583E-2,4.3441772E-2,1.0116577E-2,6.1340333E-4,-4.1809082E-2,2.537079E-1,4.774475E-2,-2.5979614E-1,-2.8710937E-2,-4.1235354E-2,4.577402E-2,-1.489563E-2,-3.9184573E-3,2.8448487E-2,1.09552E-1,2.508545E-3,1.7425539E-2,-9.992066E-2,-5.9967046E-3,6.042481E-3,-2.039795E-2,4.4326784E-4,8.659974E-2],"categories":[],"categories_nodes":[],"categories_segments":[],"categories_sizes":[],"default_left":[0,0,0,0,0,0,0,0,0,0,0,0,0,0,0,0,0,0,0,0,0,0,0,0,0,0,0,0,0,0,0,0,0,0,0,0,0,0,0],"id":34,"left_children":[1,3,5,7,9,11,-1,-1,-1,13,15,17,-1,19,21,23,25,-1,-1,-1,27,29,31,33,35,-1,37,-1,-1,-1,-1,-1,-1,-1,-1,-1,-1,-1,-1],"loss_changes":[7.014909E-1,4.8650807E-1,2.710426E-1,4.5401275E-2,1.6283539E-1,3.4353566E-1,0E0,0E0,0E0,9.378392E-2,1.316272E-1,1.7155856E-3,0E0,1.5716385E-3,5.887772E-2,9.923872E-2,8.169137E-2,0E0,0E0,0E0,2.787076E-5,3.6209583E-2,1.1432394E-3,6.362757E-2,1.0964674E-2,0E0,1.3944367E-1,0E0,0E0,0E0,0E0,0E0,0E0,0E0,0E0,0E0,0E0,0E0,0E0],"parents":[2147483647,0,0,1,1,2,2,3,3,4,4,5,5,9,9,10,10,11,11,13,13,14,14,15,15,16,16,20,20,21,21,22,22,23,23,24,24,26,26],"right_children":[2,4,6,8,10,12,-1,-1,-1,14,16,18,-1,20,22,24,26,-1,-1,-1,28,30,32,34,36,-1,38,-1,-1,-1,-1,-1,-1,-1,-1,-1,-1,-1,-1],"split_conditions":[6.63E-1,5.11E-1,4.716E3,3.635E3,4.045E3,6.72E-1,5.834961E-3,-4.5440678E-2,-1.5291595E-1,3.528E3,5.47E-1,7.5E0,2.3475038E-1,7.5E0,5.45E-1,8E0,4.188E3,4.3441772E-2,1.0116577E-2,6.1340333E-4,8E0,3.656E3,3.718E3,4.897E3,4.447E3,-4.1235354E-2,1.034E4,-1.489563E-2,-3.9184573E-3,2.8448487E-2,1.09552E-1,2.508545E-3,1.7425539E-2,-9.992066E-2,-5.9967046E-3,6.042481E-3,-2.039795E-2,4.4326784E-4,8.659974E-2],"split_indices":[3,3,1,1,1,3,0,0,0,1,3,0,0,0,3,0,1,0,0,0,0,1,1,1,1,0,2,0,0,0,0,0,0,0,0,0,0,0,0],"split_type":[0,0,0,0,0,0,0,0,0,0,0,0,0,0,0,0,0,0,0,0,0,0,0,0,0,0,0,0,0,0,0,0,0,0,0,0,0,0,0],"sum_hessian":[3.8E1,3.3E1,5E0,3E0,3E1,3E0,2E0,2E0,1E0,9E0,2.1E1,2E0,1E0,3E0,6E0,7E0,1.4E1,1E0,1E0,1E0,2E0,3E0,3E0,3E0,4E0,2E0,1.2E1,1E0,1E0,2E0,1E0,1E0,2E0,2E0,1E0,2E0,2E0,1.1E1,1E0],"tree_param":{"num_deleted":"0","num_feature":"4","num_nodes":"39","size_leaf_vector":"1"}},{"base_weights":[1.473686E-2,-3.2518275E-2,2.800598E-1,-3.0750275E-1,4.0125693E-3,4.08432E-1,4.663086E-3,-3.6349487E-2,-1.2997742E-1,8.988037E-2,-3.520064E-2,1.011556E-1,1.995392E-1,1.9810269E-2,1.9003296E-1,-1.1852646E-1,1.1586507E-2,3.692322E-2,8.596802E-3,-2.5787354E-2,6.0455322E-2,9.311829E-2,1.3934326E-2,-2.0833588E-1,-2.2973632E-2,-1.906879E-2,1.4056396E-1,5.218506E-4,-1.0662842E-2,2.2760011E-2,2.1331788E-3,-7.993774E-2,-5.09491E-3,4.8339847E-3,-1.63208E-2,3.2398224E-2,-2.0396119E-2,-1.0354615E-2,7.36084E-2],"categories":[],"categories_nodes":[],"categories_segments":[],"categories_sizes":[],"default_left":[0,0,0,0,0,0,0,0,0,0,0,0,0,0,0,0,0,0,0,0,0,0,0,0,0,0,0,0,0,0,0,0,0,0,0,0,0,0,0],"id":35,"left_children":[1,3,5,7,9,11,-1,-1,-1,13,15,17,-1,19,21,23,25,-1,-1,27,29,-1,-1,31,33,35,37,-1,-1,-1,-1,-1,-1,-1,-1,-1,-1,-1,-1],"loss_changes":[4.9808407E-1,3.42778E-1,1.9739065E-1,4.1236162E-2,1.0754556E-1,2.4822795E-1,0E0,0E0,0E0,6.641242E-2,8.7142006E-2,1.2410562E-3,0E0,1.45322075E-2,5.4711312E-2,6.3866116E-2,6.1988026E-2,0E0,0E0,1.1359744E-3,2.7490053E-3,0E0,0E0,3.9962932E-2,7.0189256E-3,8.814625E-2,6.3512295E-2,0E0,0E0,0E0,0E0,0E0,0E0,0E0,0E0,0E0,0E0,0E0,0E0],"parents":[2147483647,0,0,1,1,2,2,3,3,4,4,5,5,9,9,10,10,11,11,13,13,14,14,15,15,16,16,19,19,20,20,23,23,24,24,25,25,26,26],"right_children":[2,4,6,8,10,12,-1,-1,-1,14,16,18,-1,20,22,24,26,-1,-1,28,30,-1,-1,32,34,36,38,-1,-1,-1,-1,-1,-1,-1,-1,-1,-1,-1,-1],"split_conditions":[6.63E-1,5.11E-1,4.716E3,3.635E3,4.045E3,6.72E-1,4.663086E-3,-3.6349487E-2,-1.2997742E-1,3.718E3,5.47E-1,7.5E0,1.995392E-1,3.528E3,3.802E3,8E0,1.034E4,3.692322E-2,8.596802E-3,7.5E0,3.656E3,9.311829E-2,1.3934326E-2,4.897E3,4.447E3,5.66E-1,6E0,5.218506E-4,-1.0662842E-2,2.2760011E-2,2.1331788E-3,-7.993774E-2,-5.09491E-3,4.8339847E-3,-1.63208E-2,3.2398224E-2,-2.0396119E-2,-1.0354615E-2,7.36084E-2],"split_indices":[3,3,1,1,1,3,0,0,0,1,3,0,0,1,1,0,2,0,0,0,1,0,0,1,1,3,0,0,0,0,0,0,0,0,0,0,0,0,0],"split_type":[0,0,0,0,0,0,0,0,0,0,0,0,0,0,0,0,0,0,0,0,0,0,0,0,0,0,0,0,0,0,0,0,0,0,0,0,0,0,0],"sum_hessian":[3.8E1,3.3E1,5E0,3E0,3E1,3E0,2E0,2E0,1E0,9E0,2.1E1,2E0,1E0,6E0,3E0,7E0,1.4E1,1E0,1E0,3E0,3E0,1E0,2E0,3E0,4E0,1.2E1,2E0,1E0,2E0,2E0,1E0,2E0,1E0,2E0,2E0,3E0,9E0,1E0,1E0],"tree_param":{"num_deleted":"0","num_feature":"4","num_nodes":"39","size_leaf_vector":"1"}},{"base_weights":[1.5031864E-2,-2.4699492E-2,2.376709E-1,-1.1048127E-1,-3.1285142E-3,3.4716797E-1,3.7353516E-3,4.3693032E-2,-3.9928235E-2,8.597819E-2,1.696106E-1,1.772583E-1,-2.0990545E-2,-5.3274717E-2,1.470337E-2,3.1384278E-2,7.3059085E-3,1.8127442E-3,2.1855164E-1,-6.548394E-2,1.1948649E-1,-1.02012634E-1,-8.956909E-3,7.941285E-2,1.2011719E-2,1.4337159E-2,-3.902588E-2,-8.798218E-3,6.2567145E-2,-9.091187E-3,-4.1693117E-2,-1.3390242E-2,1.6715242E-2],"categories":[],"categories_nodes":[],"categories_segments":[],"categories_sizes":[],"default_left":[0,0,0,0,0,0,0,0,0,0,0,0,0,0,0,0,0,0,0,0,0,0,0,0,0,0,0,0,0,0,0,0,0],"id":36,"left_children":[1,3,5,-1,7,9,-1,11,13,15,-1,17,19,21,-1,-1,-1,-1,23,25,27,29,31,-1,-1,-1,-1,-1,-1,-1,-1,-1,-1],"loss_changes":[3.5085464E-1,2.5082767E-1,1.4364275E-1,0E0,5.860424E-2,1.7935777E-1,0E0,1.3331294E-1,2.516461E-2,8.976776E-4,0E0,3.402978E-2,7.657775E-2,3.5805564E-2,0E0,0E0,0E0,0E0,2.2360295E-2,7.2077036E-2,4.588128E-2,1.699379E-2,2.5560927E-2,0E0,0E0,0E0,0E0,0E0,0E0,0E0,0E0,0E0,0E0],"parents":[2147483647,0,0,1,1,2,2,4,4,5,5,7,7,8,8,9,9,11,11,12,12,13,13,18,18,19,19,20,20,21,21,22,22],"right_children":[2,4,6,-1,8,10,-1,12,14,16,-1,18,20,22,-1,-1,-1,-1,24,26,28,30,32,-1,-1,-1,-1,-1,-1,-1,-1,-1,-1],"split_conditions":[6.63E-1,4.87E-1,4.716E3,-1.1048127E-1,7.5E0,6.72E-1,3.7353516E-3,5.915E3,5.8E-1,7.5E0,1.696106E-1,3.718E3,1.034E4,3.635E3,1.470337E-2,3.1384278E-2,7.3059085E-3,1.8127442E-3,6.08E-1,3.865E3,6E0,5.29E-1,5.52E-1,7.941285E-2,1.2011719E-2,1.4337159E-2,-3.902588E-2,-8.798218E-3,6.2567145E-2,-9.091187E-3,-4.1693117E-2,-1.3390242E-2,1.6715242E-2],"split_indices":[3,3,1,0,0,3,0,2,3,0,0,1,2,2,0,0,0,0,3,1,0,3,3,0,0,0,0,0,0,0,0,0,0],"split_type":[0,0,0,0,0,0,0,0,0,0,0,0,0,0,0,0,0,0,0,0,0,0,0,0,0,0,0,0,0,0,0,0,0],"sum_hessian":[3.8E1,3.3E1,5E0,1E0,3.2E1,3E0,2E0,1.4E1,1.8E1,2E0,1E0,4E0,1E1,1.6E1,2E0,1E0,1E0,1E0,3E0,8E0,2E0,7E0,9E0,2E0,1E0,3E0,5E0,1E0,1E0,3E0,4E0,6E0,3E0],"tree_param":{"num_deleted":"0","num_feature":"4","num_nodes":"33","size_leaf_vector":"1"}},{"base_weights":[1.5416854E-2,-2.2359467E-1,4.1545443E-2,-2.6831057E-2,-9.3910225E-2,1.5291156E-2,2.4775696E-1,-3.969998E-2,3.4476317E-2,1.441681E-1,9.969075E-3,-4.284668E-2,-8.956909E-3,8.7366275E-2,-6.608073E-3,8.514405E-4,3.6346437E-3,-3.1545002E-2,1.1761474E-2,-2.1820068E-3,1.21219635E-1,-4.3063078E-2,7.491455E-2,-2.5619507E-2,5.019379E-3,-9.054566E-3,5.1635746E-3,5.942383E-2,1.877594E-2,-2.5946045E-2,3.046875E-2,4.1690063E-2,-4.2327885E-3],"categories":[],"categories_nodes":[],"categories_segments":[],"categories_sizes":[],"default_left":[0,0,0,0,0,0,0,0,0,0,0,0,0,0,0,0,0,0,0,0,0,0,0,0,0,0,0,0,0,0,0,0,0],"id":37,"left_children":[1,3,5,-1,-1,7,9,11,13,-1,15,-1,17,19,21,-1,-1,23,-1,25,27,29,31,-1,-1,-1,-1,-1,-1,-1,-1,-1,-1],"loss_changes":[2.5284564E-1,1.9999191E-2,1.9111323E-1,0E0,0E0,3.6184166E-2,2.1664052E-1,2.7253412E-2,5.4901123E-2,0E0,1.1532247E-5,0E0,9.93979E-3,3.361111E-2,4.7804665E-2,0E0,0E0,1.7027855E-2,0E0,2.6915977E-3,2.3655169E-2,7.786583E-2,3.047165E-2,0E0,0E0,0E0,0E0,0E0,0E0,0E0,0E0,0E0,0E0],"parents":[2147483647,0,0,1,1,2,2,5,5,6,6,7,7,8,8,10,10,12,12,13,13,14,14,17,17,19,19,20,20,21,21,22,22],"right_children":[2,4,6,-1,-1,8,10,12,14,-1,16,-1,18,20,22,-1,-1,24,-1,26,28,30,32,-1,-1,-1,-1,-1,-1,-1,-1,-1,-1],"split_conditions":[5.11E-1,3.635E3,6.72E-1,-2.6831057E-2,-9.3910225E-2,3.274E3,4.391E3,8E0,6.524E3,1.441681E-1,6.58E0,-4.284668E-2,5.78E-1,3.718E3,4.476E3,8.514405E-4,3.6346437E-3,1.586E3,1.1761474E-2,3.528E3,4.206E3,9.794E3,4.716E3,-2.5619507E-2,5.019379E-3,-9.054566E-3,5.1635746E-3,5.942383E-2,1.877594E-2,-2.5946045E-2,3.046875E-2,4.1690063E-2,-4.2327885E-3],"split_indices":[3,1,3,0,0,2,1,0,2,0,0,0,3,1,1,0,0,2,0,1,1,2,1,0,0,0,0,0,0,0,0,0,0],"split_type":[0,0,0,0,0,0,0,0,0,0,0,0,0,0,0,0,0,0,0,0,0,0,0,0,0,0,0,0,0,0,0,0,0],"sum_hessian":[3.8E1,3E0,3.5E1,2E0,1E0,3.2E1,3E0,8E0,2.4E1,1E0,2E0,1E0,7E0,1E1,1.4E1,1E0,1E0,5E0,2E0,3E0,7E0,1E1,4E0,2E0,3E0,1E0,2E0,2E0,5E0,8E0,2E0,2E0,2E0],"tree_param":{"num_deleted":"0","num_feature":"4","num_nodes":"33","size_leaf_vector":"1"}},{"base_weights":[1.3157771E-2,-1.8669891E-1,3.4998577E-2,-2.1463012E-2,-7.9824835E-2,1.2654622E-2,2.1058655E-1,6.230025E-2,-1.1639139E-2,1.2254334E-1,8.463542E-3,1.2021484E-1,1.2032645E-2,-9.410095E-2,1.6494751E-2,7.232666E-4,3.0853273E-3,2.339681E-2,5.308838E-2,-1.2145996E-2,9.960938E-3,-4.171753E-2,-3.977356E-2,1.12133786E-1,-1.8840244E-2,2.1789551E-3,8.34961E-3,-7.699585E-3,2.746582E-4,-2.5341798E-2,1.29821785E-2,6.829834E-3,4.923706E-2,-4.831238E-2,1.3458253E-3],"categories":[],"categories_nodes":[],"categories_segments":[],"categories_sizes":[],"default_left":[0,0,0,0,0,0,0,0,0,0,0,0,0,0,0,0,0,0,0,0,0,0,0,0,0,0,0,0,0,0,0,0,0,0,0],"id":38,"left_children":[1,3,5,-1,-1,7,9,11,13,-1,15,17,19,21,23,-1,-1,25,-1,27,-1,29,-1,31,33,-1,-1,-1,-1,-1,-1,-1,-1,-1,-1],"loss_changes":[1.7677039E-1,1.7529503E-2,1.3857497E-1,0E0,0E0,4.0525727E-2,1.5653633E-1,3.0577004E-2,5.491152E-2,0E0,8.268908E-6,2.3330055E-2,3.986399E-3,6.5626726E-3,6.294191E-2,0E0,0E0,1.251942E-5,0E0,7.298272E-4,0E0,1.8190745E-2,0E0,1.9494556E-2,4.716083E-2,0E0,0E0,0E0,0E0,0E0,0E0,0E0,0E0,0E0,0E0],"parents":[2147483647,0,0,1,1,2,2,5,5,6,6,7,7,8,8,10,10,11,11,12,12,13,13,14,14,17,17,19,19,21,21,23,23,24,24],"right_children":[2,4,6,-1,-1,8,10,12,14,-1,16,18,20,22,24,-1,-1,26,-1,28,-1,30,-1,32,34,-1,-1,-1,-1,-1,-1,-1,-1,-1,-1],"split_conditions":[5.11E-1,3.635E3,6.72E-1,-2.1463012E-2,-7.9824835E-2,4.045E3,4.391E3,5.45E-1,4.258E3,1.2254334E-1,6.58E0,3.601E3,5.8E-1,4.206E3,4.332E3,7.232666E-4,3.0853273E-3,7.5E0,5.308838E-2,5.52E-1,9.960938E-3,4.188E3,-3.977356E-2,4.3E3,4.345E3,2.1789551E-3,8.34961E-3,-7.699585E-3,2.746582E-4,-2.5341798E-2,1.29821785E-2,6.829834E-3,4.923706E-2,-4.831238E-2,1.3458253E-3],"split_indices":[3,1,3,0,0,1,1,3,1,0,0,1,3,1,1,0,0,0,0,3,0,1,0,1,1,0,0,0,0,0,0,0,0,0,0],"split_type":[0,0,0,0,0,0,0,0,0,0,0,0,0,0,0,0,0,0,0,0,0,0,0,0,0,0,0,0,0,0,0,0,0,0,0],"sum_hessian":[3.8E1,3E0,3.5E1,2E0,1E0,3.2E1,3E0,1E1,2.2E1,1E0,2E0,4E0,6E0,5E0,1.7E1,1E0,1E0,2E0,2E0,3E0,3E0,3E0,2E0,4E0,1.3E1,1E0,1E0,1E0,2E0,2E0,1E0,2E0,2E0,1E0,1.2E1],"tree_param":{"num_deleted":"0","num_feature":"4","num_nodes":"35","size_leaf_vector":"1"}},{"base_weights":[1.0444054E-2,-1.381459E-2,1.4616902E-1,-6.784973E-2,-5.26197E-4,2.1386719E-1,7.181803E-3,3.0836996E-2,-2.5258917E-2,5.3690594E-2,1.0415955E-1,6.1340333E-4,2.6184083E-3,1.0037842E-1,-3.5761052E-3,-7.50885E-2,-1.1222839E-2,2.0224E-2,3.9367676E-3,4.1549683E-2,5.0354008E-2,-5.3415935E-2,4.685974E-2,-3.6621094E-2,-5.6213383E-3,-3.6769323E-2,7.7819824E-3,7.141114E-4,1.61438E-2,1.2052918E-2,-4.812012E-2,-1.6571045E-2,3.351517E-2,-1.6329346E-2,1.4770508E-3,5.12797E-3,-1.1402894E-2],"categories":[],"categories_nodes":[],"categories_segments":[],"categories_sizes":[],"default_left":[0,0,0,0,0,0,0,0,0,0,0,0,0,0,0,0,0,0,0,0,0,0,0,0,0,0,0,0,0,0,0,0,0,0,0,0,0],"id":39,"left_children":[1,3,5,-1,7,9,11,13,15,17,-1,-1,-1,19,21,23,25,-1,-1,27,-1,29,31,-1,-1,33,35,-1,-1,-1,-1,-1,-1,-1,-1,-1,-1],"loss_changes":[1.304269E-1,9.582239E-2,5.4919124E-2,0E0,2.6376914E-2,6.678492E-2,5.983442E-6,3.6256004E-2,1.24461185E-2,7.854784E-4,0E0,0E0,0E0,1.2871385E-2,3.0153908E-2,8.302506E-3,8.05424E-3,0E0,0E0,1.7932355E-3,0E0,6.652185E-2,4.590126E-2,0E0,0E0,5.422592E-3,4.9134814E-3,0E0,0E0,0E0,0E0,0E0,0E0,0E0,0E0,0E0,0E0],"parents":[2147483647,0,0,1,1,2,2,4,4,5,5,6,6,7,7,8,8,9,9,13,13,14,14,15,15,16,16,19,19,21,21,22,22,25,25,26,26],"right_children":[2,4,6,-1,8,10,12,14,16,18,-1,-1,-1,20,22,24,26,-1,-1,28,-1,30,32,-1,-1,34,36,-1,-1,-1,-1,-1,-1,-1,-1,-1,-1],"split_conditions":[6.63E-1,4.87E-1,4.716E3,-6.784973E-2,7.5E0,6.72E-1,6.58E0,5.915E3,8E0,7.5E0,1.0415955E-1,6.1340333E-4,2.6184083E-3,4.121E3,8.507E3,2.449E3,4.188E3,2.0224E-2,3.9367676E-3,3.718E3,5.0354008E-2,3.865E3,4.207E3,-3.6621094E-2,-5.6213383E-3,5.78E-1,6.524E3,7.141114E-4,1.61438E-2,1.2052918E-2,-4.812012E-2,-1.6571045E-2,3.351517E-2,-1.6329346E-2,1.4770508E-3,5.12797E-3,-1.1402894E-2],"split_indices":[3,3,1,0,0,3,0,2,0,0,0,0,0,2,2,2,1,0,0,1,0,1,1,0,0,3,2,0,0,0,0,0,0,0,0,0,0],"split_type":[0,0,0,0,0,0,0,0,0,0,0,0,0,0,0,0,0,0,0,0,0,0,0,0,0,0,0,0,0,0,0,0,0,0,0,0,0],"sum_hessian":[3.8E1,3.3E1,5E0,1E0,3.2E1,3E0,2E0,1.4E1,1.8E1,2E0,1E0,1E0,1E0,4E0,1E1,3E0,1.5E1,1E0,1E0,3E0,1E0,5E0,5E0,1E0,2E0,6E0,9E0,1E0,2E0,3E0,2E0,2E0,3E0,4E0,2E0,8E0,1E0],"tree_param":{"num_deleted":"0","num_feature":"4","num_nodes":"37","size_leaf_vector":"1"}},{"base_weights":[8.555877E-3,-1.2111888E-2,1.2424723E-1,-5.7673648E-2,-8.276737E-4,1.8179321E-1,6.1035156E-3,2.4792481E-2,-2.101055E-2,4.5654297E-2,8.8531494E-2,5.218506E-4,2.2247315E-3,8.36914E-2,-4.2336206E-3,-6.312561E-2,-9.168625E-3,1.7193604E-2,3.3508302E-3,3.327942E-2,4.2800903E-2,-2.7716743E-2,6.762695E-2,-3.1127932E-2,-1.4994304E-2,-1.3900758E-2,-5.493164E-4,3.027344E-3,1.5426637E-2,9.347535E-3,-1.8704224E-2,-5.7678223E-3,3.6199953E-2,-5.7037356E-3,-1.0437012E-3,-8.207703E-3,2.7748803E-3],"categories":[],"categories_nodes":[],"categories_segments":[],"categories_sizes":[],"default_left":[0,0,0,0,0,0,0,0,0,0,0,0,0,0,0,0,0,0,0,0,0,0,0,0,0,0,0,0,0,0,0,0,0,0,0,0,0],"id":40,"left_children":[1,3,5,-1,7,9,11,13,15,17,-1,-1,-1,19,21,23,25,-1,-1,27,-1,29,31,-1,33,-1,35,-1,-1,-1,-1,-1,-1,-1,-1,-1,-1],"loss_changes":[9.475705E-2,6.895153E-2,3.9682597E-2,0E0,1.758482E-2,4.823175E-2,4.2803586E-6,2.5998408E-2,8.896969E-3,5.659014E-4,0E0,0E0,0E0,1.0118093E-2,2.0437015E-2,6.267296E-3,5.10024E-3,0E0,0E0,1.1638836E-3,0E0,2.0292634E-2,1.613988E-2,0E0,7.266615E-5,0E0,3.930943E-3,0E0,0E0,0E0,0E0,0E0,0E0,0E0,0E0,0E0,0E0],"parents":[2147483647,0,0,1,1,2,2,4,4,5,5,6,6,7,7,8,8,9,9,13,13,14,14,15,15,16,16,19,19,21,21,22,22,24,24,26,26],"right_children":[2,4,6,-1,8,10,12,14,16,18,-1,-1,-1,20,22,24,26,-1,-1,28,-1,30,32,-1,34,-1,36,-1,-1,-1,-1,-1,-1,-1,-1,-1,-1],"split_conditions":[6.63E-1,4.87E-1,4.716E3,-5.7673648E-2,7.5E0,6.72E-1,6.58E0,5.915E3,8E0,7.5E0,8.8531494E-2,5.218506E-4,2.2247315E-3,4.121E3,1.034E4,2.449E3,5.11E-1,1.7193604E-2,3.3508302E-3,4.3E3,4.2800903E-2,3.865E3,6E0,-3.1127932E-2,3.528E3,-1.3900758E-2,1.586E3,3.027344E-3,1.5426637E-2,9.347535E-3,-1.8704224E-2,-5.7678223E-3,3.6199953E-2,-5.7037356E-3,-1.0437012E-3,-8.207703E-3,2.7748803E-3],"split_indices":[3,3,1,0,0,3,0,2,0,0,0,0,0,2,2,2,3,0,0,1,0,1,0,0,1,0,2,0,0,0,0,0,0,0,0,0,0],"split_type":[0,0,0,0,0,0,0,0,0,0,0,0,0,0,0,0,0,0,0,0,0,0,0,0,0,0,0,0,0,0,0,0,0,0,0,0,0],"sum_hessian":[3.8E1,3.3E1,5E0,1E0,3.2E1,3E0,2E0,1.4E1,1.8E1,2E0,1E0,1E0,1E0,4E0,1E1,3E0,1.5E1,1E0,1E0,3E0,1E0,8E0,2E0,1E0,2E0,2E0,1.3E1,2E0,1E0,3E0,5E0,1E0,1E0,1E0,1E0,3E0,1E1],"tree_param":{"num_deleted":"0","num_feature":"4","num_nodes":"37","size_leaf_vector":"1"}},{"base_weights":[8.021428E-3,-9.436214E-3,1.0561117E-1,-4.9021915E-2,1.8125592E-4,1.5452576E-1,5.1879883E-3,2.2835286E-2,-1.7713046E-2,3.8798016E-2,7.525635E-2,4.3945314E-4,1.8951417E-3,4.0690105E-2,-3.643799E-2,-2.4597168E-2,2.7201334E-2,1.4611817E-2,2.8472901E-3,6.668091E-3,8.69873E-2,6.121827E-3,-3.1045534E-2,-4.4963837E-2,-5.844116E-3,1.0272217E-2,1.9683838E-3,2.258606E-2,-1.4868164E-2,3.5531618E-2,-5.822754E-3,-2.206421E-3,-1.9817507E-2,-6.1837337E-3,6.438446E-3],"categories":[],"categories_nodes":[],"categories_segments":[],"categories_sizes":[],"default_left":[0,0,0,0,0,0,0,0,0,0,0,0,0,0,0,0,0,0,0,0,0,0,0,0,0,0,0,0,0,0,0,0,0,0,0],"id":41,"left_children":[1,3,5,-1,7,9,11,13,15,17,-1,-1,-1,19,21,23,25,-1,-1,27,29,-1,-1,31,33,-1,-1,-1,-1,-1,-1,-1,-1,-1,-1],"loss_changes":[6.7440346E-2,5.0376937E-2,2.867128E-2,0E0,1.3781957E-2,3.485897E-2,3.3583492E-6,1.7357368E-2,6.5438016E-3,4.0885853E-4,0E0,0E0,0E0,1.8321449E-2,1.7356653E-2,6.2301587E-3,2.1121721E-4,0E0,0E0,3.4597978E-2,1.90304E-2,0E0,0E0,5.860923E-3,4.4749547E-3,0E0,0E0,0E0,0E0,0E0,0E0,0E0,0E0,0E0,0E0],"parents":[2147483647,0,0,1,1,2,2,4,4,5,5,6,6,7,7,8,8,9,9,13,13,14,14,15,15,16,16,19,19,20,20,23,23,24,24],"right_children":[2,4,6,-1,8,10,12,14,16,18,-1,-1,-1,20,22,24,26,-1,-1,28,30,-1,-1,32,34,-1,-1,-1,-1,-1,-1,-1,-1,-1,-1],"split_conditions":[6.63E-1,4.87E-1,4.716E3,-4.9021915E-2,7.5E0,6.72E-1,6.58E0,6.08E-1,5.8E-1,7.5E0,7.525635E-2,4.3945314E-4,1.8951417E-3,4.258E3,4.3E3,3.635E3,8.5E0,1.4611817E-2,2.8472901E-3,5.45E-1,4.593E3,6.121827E-3,-3.1045534E-2,5.29E-1,5.52E-1,1.0272217E-2,1.9683838E-3,2.258606E-2,-1.4868164E-2,3.5531618E-2,-5.822754E-3,-2.206421E-3,-1.9817507E-2,-6.1837337E-3,6.438446E-3],"split_indices":[3,3,1,0,0,3,0,3,3,0,0,0,0,1,1,2,0,0,0,3,1,0,0,3,3,0,0,0,0,0,0,0,0,0,0],"split_type":[0,0,0,0,0,0,0,0,0,0,0,0,0,0,0,0,0,0,0,0,0,0,0,0,0,0,0,0,0,0,0,0,0,0,0],"sum_hessian":[3.8E1,3.3E1,5E0,1E0,3.2E1,3E0,2E0,1.4E1,1.8E1,2E0,1E0,1E0,1E0,1.1E1,3E0,1.6E1,2E0,1E0,1E0,7E0,4E0,2E0,1E0,7E0,9E0,1E0,1E0,3E0,4E0,3E0,1E0,3E0,4E0,6E0,3E0],"tree_param":{"num_deleted":"0","num_feature":"4","num_nodes":"35","size_leaf_vector":"1"}},{"base_weights":[6.875063E-3,-7.956112E-3,8.9772545E-2,-1.14746094E-1,2.3040771E-3,1.3134766E-1,4.4148765E-3,-9.965516E-3,-4.167023E-2,2.5429465E-2,-9.363348E-3,3.297933E-2,6.39679E-2,3.7536622E-4,1.6113282E-3,-7.3750815E-3,5.399577E-2,-4.3315887E-2,9.3688965E-3,1.2423706E-2,2.4169923E-3,9.466553E-3,-6.4416504E-3,8.833822E-2,4.4219973E-3,-2.1820068E-3,-6.7559816E-2,2.3026686E-2,-5.2937824E-2,6.756592E-3,3.2995608E-2,-2.92511E-3,1.0772705E-3,-2.8234864E-2,-5.5450443E-3,-7.349854E-3,1.4061484E-2,2.5634766E-3,-2.63855E-2],"categories":[],"categories_nodes":[],"categories_segments":[],"categories_sizes":[],"default_left":[0,0,0,0,0,0,0,0,0,0,0,0,0,0,0,0,0,0,0,0,0,0,0,0,0,0,0,0,0,0,0,0,0,0,0,0,0,0,0],"id":42,"left_children":[1,3,5,7,9,11,13,-1,-1,15,17,19,-1,-1,-1,21,23,25,27,-1,-1,-1,-1,29,-1,31,33,35,37,-1,-1,-1,-1,-1,-1,-1,-1,-1,-1],"loss_changes":[4.8663452E-2,3.751769E-2,2.0712644E-2,1.2937635E-3,8.872144E-3,2.5185004E-2,2.3550056E-6,0E0,0E0,1.0706373E-2,1.4397982E-2,2.9687653E-4,0E0,0E0,0E0,3.9703776E-3,6.786734E-3,7.830557E-3,1.39835635E-2,0E0,0E0,0E0,0E0,1.7971117E-3,0E0,2.0977839E-4,4.776858E-3,1.5880693E-2,7.2097806E-3,0E0,0E0,0E0,0E0,0E0,0E0,0E0,0E0,0E0,0E0],"parents":[2147483647,0,0,1,1,2,2,3,3,4,4,5,5,6,6,9,9,10,10,11,11,15,15,16,16,17,17,18,18,23,23,25,25,26,26,27,27,28,28],"right_children":[2,4,6,8,10,12,14,-1,-1,16,18,20,-1,-1,-1,22,24,26,28,-1,-1,-1,-1,30,-1,32,34,36,38,-1,-1,-1,-1,-1,-1,-1,-1,-1,-1],"split_conditions":[6.63E-1,4.93E-1,4.716E3,3.571E3,4.045E3,6.72E-1,6.58E0,-9.965516E-3,-4.167023E-2,3.635E3,5.47E-1,7.5E0,6.39679E-2,3.7536622E-4,1.6113282E-3,2.138E3,5.45E-1,5.29E-1,6.08E-1,1.2423706E-2,2.4169923E-3,9.466553E-3,-6.4416504E-3,3.656E3,4.4219973E-3,3.274E3,8E0,4.207E3,4.3E3,6.756592E-3,3.2995608E-2,-2.92511E-3,1.0772705E-3,-2.8234864E-2,-5.5450443E-3,-7.349854E-3,1.4061484E-2,2.5634766E-3,-2.63855E-2],"split_indices":[3,3,1,1,1,3,0,0,0,1,3,0,0,0,0,2,3,3,3,0,0,0,0,1,0,2,0,1,1,0,0,0,0,0,0,0,0,0,0],"split_type":[0,0,0,0,0,0,0,0,0,0,0,0,0,0,0,0,0,0,0,0,0,0,0,0,0,0,0,0,0,0,0,0,0,0,0,0,0,0,0],"sum_hessian":[3.8E1,3.3E1,5E0,2E0,3.1E1,3E0,2E0,1E0,1E0,1E1,2.1E1,2E0,1E0,1E0,1E0,5E0,5E0,7E0,1.4E1,1E0,1E0,1E0,4E0,2E0,3E0,3E0,4E0,1.2E1,2E0,1E0,1E0,1E0,2E0,2E0,2E0,4E0,8E0,1E0,1E0],"tree_param":{"num_deleted":"0","num_feature":"4","num_nodes":"39","size_leaf_vector":"1"}},{"base_weights":[5.4203914E-3,-7.247925E-3,7.6304115E-2,-9.753418E-2,1.4429092E-3,1.116333E-1,3.7638347E-3,-8.468628E-3,-3.5421755E-2,1.34887695E-2,-1.7200176E-2,2.8015137E-2,5.437317E-2,3.2043457E-4,1.373291E-3,4.2419434E-3,6.447347E-2,-2.243042E-2,-6.17218E-3,1.0556031E-2,2.0507814E-3,3.3316474E-2,-1.3071696E-2,5.6762695E-3,2.3336792E-2,-4.0270995E-2,1.5911102E-2,-3.4240724E-3,2.0915223E-2,-7.4615483E-3,2.5268556E-3,-1.8399049E-2,-1.7364504E-3,1.1612549E-2,-4.969025E-3],"categories":[],"categories_nodes":[],"categories_segments":[],"categories_sizes":[],"default_left":[0,0,0,0,0,0,0,0,0,0,0,0,0,0,0,0,0,0,0,0,0,0,0,0,0,0,0,0,0,0,0,0,0,0,0],"id":43,"left_children":[1,3,5,7,9,11,13,-1,-1,15,17,19,-1,-1,-1,21,23,-1,25,-1,-1,27,29,-1,-1,31,33,-1,-1,-1,-1,-1,-1,-1,-1],"loss_changes":[3.5574168E-2,2.681927E-2,1.4956564E-2,9.3721226E-4,7.4183135E-3,1.820527E-2,1.6919039E-6,0E0,0E0,9.15544E-3,7.7916784E-3,2.1513365E-4,0E0,0E0,0E0,9.49645E-3,3.4786854E-4,0E0,9.676921E-3,0E0,0E0,1.2193233E-2,3.2531533E-3,0E0,0E0,3.2759076E-3,6.56382E-3,0E0,0E0,0E0,0E0,0E0,0E0,0E0,0E0],"parents":[2147483647,0,0,1,1,2,2,3,3,4,4,5,5,6,6,9,9,10,10,11,11,15,15,16,16,18,18,21,21,22,22,25,25,26,26],"right_children":[2,4,6,8,10,12,14,-1,-1,16,18,20,-1,-1,-1,22,24,-1,26,-1,-1,28,30,-1,-1,32,34,-1,-1,-1,-1,-1,-1,-1,-1],"split_conditions":[6.63E-1,4.93E-1,4.716E3,3.571E3,4.332E3,6.72E-1,6.58E0,-8.468628E-3,-3.5421755E-2,4.3E3,4.345E3,7.5E0,5.437317E-2,3.2043457E-4,1.373291E-3,5.45E-1,4.318E3,-2.243042E-2,5.3E-1,1.0556031E-2,2.0507814E-3,5.18E-1,5.78E-1,5.6762695E-3,2.3336792E-2,4.897E3,5.002E3,-3.4240724E-3,2.0915223E-2,-7.4615483E-3,2.5268556E-3,-1.8399049E-2,-1.7364504E-3,1.1612549E-2,-4.969025E-3],"split_indices":[3,3,1,1,1,3,0,0,0,1,1,0,0,0,0,3,1,0,3,0,0,3,3,0,0,1,1,0,0,0,0,0,0,0,0],"split_type":[0,0,0,0,0,0,0,0,0,0,0,0,0,0,0,0,0,0,0,0,0,0,0,0,0,0,0,0,0,0,0,0,0,0,0],"sum_hessian":[3.8E1,3.3E1,5E0,2E0,3.1E1,3E0,2E0,1E0,1E0,1.9E1,1.2E1,2E0,1E0,1E0,1E0,1.7E1,2E0,1E0,1.1E1,1E0,1E0,6E0,1.1E1,1E0,1E0,4E0,7E0,3E0,3E0,7E0,4E0,2E0,2E0,4E0,3E0],"tree_param":{"num_deleted":"0","num_feature":"4","num_nodes":"35","size_leaf_vector":"1"}},{"base_weights":[4.5752893E-3,-6.1977613E-3,6.486002E-2,-8.289591E-2,1.1863708E-3,9.487915E-2,3.2145183E-3,-7.196045E-3,-3.0107118E-2,1.151886E-2,-1.4801025E-2,2.3803711E-2,4.621582E-2,2.746582E-4,1.171875E-3,-1.3293457E-2,1.6789487E-2,-1.906128E-2,-5.4448447E-3,8.972168E-3,1.7395021E-3,1.0374282E-2,1.9839479E-2,-3.2214355E-2,1.1966705E-2,8.5693365E-3,-4.7801975E-3,-1.47186285E-2,-1.3885499E-3,8.825684E-3,-3.8520815E-3],"categories":[],"categories_nodes":[],"categories_segments":[],"categories_sizes":[],"default_left":[0,0,0,0,0,0,0,0,0,0,0,0,0,0,0,0,0,0,0,0,0,0,0,0,0,0,0,0,0,0,0],"id":44,"left_children":[1,3,5,7,9,11,13,-1,-1,15,17,19,-1,-1,-1,-1,21,-1,23,-1,-1,25,-1,27,29,-1,-1,-1,-1,-1,-1],"loss_changes":[2.5730556E-2,1.935422E-2,1.0798274E-2,6.786138E-4,5.456558E-3,1.3156127E-2,1.1945776E-6,0E0,0E0,6.6291895E-3,5.581894E-3,1.5627593E-4,0E0,0E0,0E0,0E0,5.3281873E-3,0E0,5.978684E-3,0E0,0E0,9.069081E-3,0E0,2.0967121E-3,3.8412455E-3,0E0,0E0,0E0,0E0,0E0,0E0],"parents":[2147483647,0,0,1,1,2,2,3,3,4,4,5,5,6,6,9,9,10,10,11,11,16,16,18,18,21,21,23,23,24,24],"right_children":[2,4,6,8,10,12,14,-1,-1,16,18,20,-1,-1,-1,-1,22,-1,24,-1,-1,26,-1,28,30,-1,-1,-1,-1,-1,-1],"split_conditions":[6.63E-1,4.93E-1,4.716E3,3.571E3,4.332E3,6.72E-1,6.58E0,-7.196045E-3,-3.0107118E-2,1.333E3,4.345E3,7.5E0,4.621582E-2,2.746582E-4,1.171875E-3,-1.3293457E-2,4.318E3,-1.906128E-2,5.3E-1,8.972168E-3,1.7395021E-3,6.524E3,1.9839479E-2,4.897E3,5.002E3,8.5693365E-3,-4.7801975E-3,-1.47186285E-2,-1.3885499E-3,8.825684E-3,-3.8520815E-3],"split_indices":[3,3,1,1,1,3,0,0,0,2,1,0,0,0,0,0,1,0,3,0,0,2,0,1,1,0,0,0,0,0,0],"split_type":[0,0,0,0,0,0,0,0,0,0,0,0,0,0,0,0,0,0,0,0,0,0,0,0,0,0,0,0,0,0,0],"sum_hessian":[3.8E1,3.3E1,5E0,2E0,3.1E1,3E0,2E0,1E0,1E0,1.9E1,1.2E1,2E0,1E0,1E0,1E0,1E0,1.8E1,1E0,1.1E1,1E0,1E0,1.7E1,1E0,4E0,7E0,1E1,7E0,2E0,2E0,4E0,3E0],"tree_param":{"num_deleted":"0","num_feature":"4","num_nodes":"31","size_leaf_vector":"1"}},{"base_weights":[3.2372107E-3,-7.101348E-3,5.1513672E-2,-6.159973E-2,4.018148E-4,7.047119E-2,8.2397467E-4,-7.5805667E-3,-2.5588991E-2,2.1484375E-2,-6.9487197E-3,2.2613525E-2,3.928528E-2,2.0577568E-3,2.3620607E-2,-1.3815308E-2,2.9121399E-2,8.0627445E-3,1.4739991E-3,-1.0559082E-2,4.2480472E-3,-3.162057E-2,-3.9258683E-3,1.6864015E-2,4.058838E-4,-3.7780763E-3,-6.68335E-4,-1.8051147E-2,-2.4499514E-3,1.4300537E-2,-6.699164E-3],"categories":[],"categories_nodes":[],"categories_segments":[],"categories_sizes":[],"default_left":[0,0,0,0,0,0,0,0,0,0,0,0,0,0,0,0,0,0,0,0,0,0,0,0,0,0,0,0,0,0,0],"id":45,"left_children":[1,3,5,7,9,11,-1,-1,-1,13,15,17,-1,19,-1,21,23,-1,-1,25,-1,27,29,-1,-1,-1,-1,-1,-1,-1,-1],"loss_changes":[1.9831069E-2,1.351879E-2,6.2779654E-3,1.2884224E-3,4.7983313E-3,1.1510832E-2,0E0,0E0,0E0,8.7355245E-3,6.09893E-3,1.6972353E-4,0E0,1.2183764E-3,0E0,3.3975434E-3,2.933156E-3,0E0,0E0,3.974451E-5,0E0,4.1958997E-3,1.4358537E-2,0E0,0E0,0E0,0E0,0E0,0E0,0E0,0E0],"parents":[2147483647,0,0,1,1,2,2,3,3,4,4,5,5,9,9,10,10,11,11,13,13,15,15,16,16,19,19,21,21,22,22],"right_children":[2,4,6,8,10,12,-1,-1,-1,14,16,18,-1,20,-1,22,24,-1,-1,26,-1,28,30,-1,-1,-1,-1,-1,-1,-1,-1],"split_conditions":[6.29E-1,5.11E-1,4.716E3,3.635E3,3.802E3,6.72E-1,8.2397467E-4,-7.5805667E-3,-2.5588991E-2,3.718E3,1.034E4,7.5E0,3.928528E-2,3.528E3,2.3620607E-2,5.47E-1,1.1868E4,8.0627445E-3,1.4739991E-3,8E0,4.2480472E-3,8E0,5.66E-1,1.6864015E-2,4.058838E-4,-3.7780763E-3,-6.68335E-4,-1.8051147E-2,-2.4499514E-3,1.4300537E-2,-6.699164E-3],"split_indices":[3,3,1,1,1,3,0,0,0,1,2,0,0,1,0,3,2,0,0,0,0,0,3,0,0,0,0,0,0,0,0],"split_type":[0,0,0,0,0,0,0,0,0,0,0,0,0,0,0,0,0,0,0,0,0,0,0,0,0,0,0,0,0,0,0],"sum_hessian":[3.8E1,3.2E1,6E0,3E0,2.9E1,4E0,2E0,2E0,1E0,7E0,2.2E1,3E0,1E0,6E0,1E0,1.9E1,3E0,2E0,1E0,3E0,3E0,6E0,1.3E1,1E0,2E0,2E0,1E0,2E0,4E0,3E0,1E1],"tree_param":{"num_deleted":"0","num_feature":"4","num_nodes":"31","size_leaf_vector":"1"}},{"base_weights":[3.4007537E-3,2.3058439E-2,-1.4546712E-2,5.7686944E-2,2.6385968E-3,-2.1748353E-2,-8.024598E-3,1.0355632E-2,7.454834E-2,-1.1695862E-2,2.1311441E-2,-1.1867748E-2,1.0314941E-2,1.09863286E-4,4.550171E-3,9.155274E-4,2.7497865E-2,-3.277588E-2,1.7578125E-2,-1.1006673E-2,4.0222168E-2,-2.1004416E-2,4.1852677E-3,3.881836E-3,3.6621094E-4,1.546224E-3,-1.6851807E-2,6.4514163E-3,8.6975103E-4,1.9226075E-4,-5.145264E-3,1.9244386E-2,-4.7332766E-3,-2.6363373E-2,-5.0354004E-3,1.3534546E-2,-6.210327E-3,-1.9775392E-3,2.67334E-3,-2.2750855E-3,-1.0834351E-2,-4.5776367E-5,-1.9836428E-3,-5.6762696E-4,5.792237E-3,2.9296876E-4,-2.6794435E-3],"categories":[],"categories_nodes":[],"categories_segments":[],"categories_sizes":[],"default_left":[0,0,0,0,0,0,0,0,0,0,0,0,0,0,0,0,0,0,0,0,0,0,0,0,0,0,0,0,0,0,0,0,0,0,0,0,0,0,0,0,0,0,0,0,0,0,0],"id":46,"left_children":[1,3,5,7,9,-1,11,13,15,17,19,21,23,-1,-1,-1,-1,25,27,29,31,33,35,-1,-1,37,-1,-1,-1,-1,-1,-1,-1,39,41,43,45,-1,-1,-1,-1,-1,-1,-1,-1,-1,-1],"loss_changes":[1.4094844E-2,1.3282849E-2,7.3550465E-3,4.8145093E-3,3.7289024E-3,0E0,1.5320473E-3,1.3864101E-4,5.837241E-3,5.5129076E-3,4.1096667E-3,2.5813172E-3,7.967651E-5,0E0,0E0,0E0,0E0,4.1019935E-3,1.6820745E-4,2.2568615E-4,6.3714515E-3,8.0859987E-4,7.6439313E-4,0E0,0E0,2.3854773E-4,0E0,0E0,0E0,0E0,0E0,0E0,0E0,1.1911117E-3,2.9786795E-5,3.927577E-4,8.694858E-5,0E0,0E0,0E0,0E0,0E0,0E0,0E0,0E0,0E0,0E0],"parents":[2147483647,0,0,1,1,2,2,3,3,4,4,6,6,7,7,8,8,9,9,10,10,11,11,12,12,17,17,18,18,19,19,20,20,21,21,22,22,25,25,33,33,34,34,35,35,36,36],"right_children":[2,4,6,8,10,-1,12,14,16,18,20,22,24,-1,-1,-1,-1,26,28,30,32,34,36,-1,-1,38,-1,-1,-1,-1,-1,-1,-1,40,42,44,46,-1,-1,-1,-1,-1,-1,-1,-1,-1,-1],"split_conditions":[7.5E0,5.915E3,4.87E-1,3.905E3,8.507E3,-2.1748353E-2,5.8E-1,6.58E0,3.718E3,6.23E-1,4.207E3,4.686E3,9E0,1.09863286E-4,4.550171E-3,9.155274E-4,2.7497865E-2,3.656E3,4.716E3,6E0,4.593E3,4.897E3,4.296E3,3.881836E-3,3.6621094E-4,3.357E3,-1.6851807E-2,6.4514163E-3,8.6975103E-4,1.9226075E-4,-5.145264E-3,1.9244386E-2,-4.7332766E-3,3.601E3,8.5E0,3.333E3,8E0,-1.9775392E-3,2.67334E-3,-2.2750855E-3,-1.0834351E-2,-4.5776367E-5,-1.9836428E-3,-5.6762696E-4,5.792237E-3,2.9296876E-4,-2.6794435E-3],"split_indices":[0,2,3,2,2,0,3,0,1,3,1,2,0,0,0,0,0,1,1,0,1,1,1,0,0,1,0,0,0,0,0,0,0,1,0,1,0,0,0,0,0,0,0,0,0,0,0],"split_type":[0,0,0,0,0,0,0,0,0,0,0,0,0,0,0,0,0,0,0,0,0,0,0,0,0,0,0,0,0,0,0,0,0,0,0,0,0,0,0,0,0,0,0,0,0,0,0],"sum_hessian":[3.8E1,1.8E1,2E1,6E0,1.2E1,1E0,1.9E1,2E0,4E0,7E0,5E0,1.6E1,3E0,1E0,1E0,1E0,3E0,4E0,3E0,2E0,3E0,1E1,6E0,2E0,1E0,2E0,2E0,2E0,1E0,1E0,1E0,2E0,1E0,7E0,3E0,3E0,3E0,1E0,1E0,3E0,4E0,1E0,2E0,1E0,2E0,1E0,2E0],"tree_param":{"num_deleted":"0","num_feature":"4","num_nodes":"47","size_leaf_vector":"1"}},{"base_weights":[2.478184E-3,-2.8881496E-3,5.015564E-2,-5.1381428E-2,1.4756146E-3,2.9260255E-2,1.8513998E-3,-4.6371464E-3,-1.8484497E-2,-5.7821833E-3,8.248223E-3,9.1552734E-5,7.415772E-4,-1.1650085E-2,6.917318E-3,1.5948487E-2,2.4791043E-3,-5.065918E-4,-1.7158508E-2,-2.7008057E-3,5.2307127E-3,-3.5869891E-3,1.7755127E-2,3.3233643E-3,-1.8516541E-3,-7.873535E-3,-4.5318605E-4,-2.6000978E-3,6.530762E-4,-3.384122E-3,7.7453614E-3,1.13922125E-2,-2.5146485E-3],"categories":[],"categories_nodes":[],"categories_segments":[],"categories_sizes":[],"default_left":[0,0,0,0,0,0,0,0,0,0,0,0,0,0,0,0,0,0,0,0,0,0,0,0,0,0,0,0,0,0,0,0,0],"id":47,"left_children":[1,3,5,7,9,-1,11,-1,-1,13,15,-1,-1,17,19,-1,21,23,25,27,-1,29,31,-1,-1,-1,-1,-1,-1,-1,-1,-1,-1],"loss_changes":[1.0123129E-2,7.6938956E-3,8.973763E-3,1.5050732E-4,1.7189364E-3,0E0,2.1240367E-6,0E0,0E0,1.3474175E-3,4.5322E-3,0E0,0E0,7.279046E-4,6.540936E-4,0E0,1.6390057E-3,3.9653893E-4,1.0978435E-3,1.3527305E-4,0E0,3.2321464E-3,2.9606426E-3,0E0,0E0,0E0,0E0,0E0,0E0,0E0,0E0,0E0,0E0],"parents":[2147483647,0,0,1,1,2,2,3,3,4,4,6,6,9,9,10,10,13,13,14,14,16,16,17,17,18,18,19,19,21,21,22,22],"right_children":[2,4,6,8,10,-1,12,-1,-1,14,16,-1,-1,18,20,-1,22,24,26,28,-1,30,32,-1,-1,-1,-1,-1,-1,-1,-1,-1,-1],"split_conditions":[6.72E-1,4.93E-1,4.391E3,3.571E3,4.725E3,2.9260255E-2,6.58E0,-4.6371464E-3,-1.8484497E-2,5.78E-1,5.915E3,9.1552734E-5,7.415772E-4,5.29E-1,4.3E3,1.5948487E-2,4.476E3,3.601E3,2.449E3,7.5E0,5.2307127E-3,9.794E3,4.716E3,3.3233643E-3,-1.8516541E-3,-7.873535E-3,-4.5318605E-4,-2.6000978E-3,6.530762E-4,-3.384122E-3,7.7453614E-3,1.13922125E-2,-2.5146485E-3],"split_indices":[3,3,1,1,2,0,0,0,0,3,2,0,0,3,1,0,1,1,2,0,0,2,1,0,0,0,0,0,0,0,0,0,0],"split_type":[0,0,0,0,0,0,0,0,0,0,0,0,0,0,0,0,0,0,0,0,0,0,0,0,0,0,0,0,0,0,0,0,0],"sum_hessian":[3.8E1,3.5E1,3E0,2E0,3.3E1,1E0,2E0,1E0,1E0,1.6E1,1.7E1,1E0,1E0,1.1E1,5E0,1E0,1.6E1,4E0,7E0,3E0,2E0,1.2E1,4E0,1E0,3E0,4E0,3E0,1E0,2E0,1E1,2E0,2E0,2E0],"tree_param":{"num_deleted":"0","num_feature":"4","num_nodes":"33","size_leaf_vector":"1"}},